{"learner":{"attributes":{"best_iteration":"186","best_score":"0.2532983302310312","scikit_learn":"{\"_estimator_type\": \"classifier\"}"},"feature_names":["temperature","surface_pressure","total_cloud_cover","low_cloud_cover","medium_cloud_cover","high_cloud_cover","precipitation","humidity","wind_speed","temp_rolling_6","temp_lag_1","temp_lag_24","month"],"feature_types":["float","float","float","float","float","float","float","float","float","float","float","float","int"],"gradient_booster":{"model":{"cats":{"enc":[],"feature_segments":[],"sorted_idx":[]},"gbtree_model_param":{"num_parallel_tree":"1","num_trees":"207"},"iteration_indptr":[0,1,2,3,4,5,6,7,8,9,10,11,12,13,14,15,16,17,18,19,20,21,22,23,24,25,26,27,28,29,30,31,32,33,34,35,36,37,38,39,40,41,42,43,44,45,46,47,48,49,50,51,52,53,54,55,56,57,58,59,60,61,62,63,64,65,66,67,68,69,70,71,72,73,74,75,76,77,78,79,80,81,82,83,84,85,86,87,88,89,90,91,92,93,94,95,96,97,98,99,100,101,102,103,104,105,106,107,108,109,110,111,112,113,114,115,116,117,118,119,120,121,122,123,124,125,126,127,128,129,130,131,132,133,134,135,136,137,138,139,140,141,142,143,144,145,146,147,148,149,150,151,152,153,154,155,156,157,158,159,160,161,162,163,164,165,166,167,168,169,170,171,172,173,174,175,176,177,178,179,180,181,182,183,184,185,186,187,188,189,190,191,192,193,194,195,196,197,198,199,200,201,202,203,204,205,206,207],"tree_info":[0,0,0,0,0,0,0,0,0,0,0,0,0,0,0,0,0,0,0,0,0,0,0,0,0,0,0,0,0,0,0,0,0,0,0,0,0,0,0,0,0,0,0,0,0,0,0,0,0,0,0,0,0,0,0,0,0,0,0,0,0,0,0,0,0,0,0,0,0,0,0,0,0,0,0,0,0,0,0,0,0,0,0,0,0,0,0,0,0,0,0,0,0,0,0,0,0,0,0,0,0,0,0,0,0,0,0,0,0,0,0,0,0,0,0,0,0,0,0,0,0,0,0,0,0,0,0,0,0,0,0,0,0,0,0,0,0,0,0,0,0,0,0,0,0,0,0,0,0,0,0,0,0,0,0,0,0,0,0,0,0,0,0,0,0,0,0,0,0,0,0,0,0,0,0,0,0,0,0,0,0,0,0,0,0,0,0,0,0,0,0,0,0,0,0,0,0,0,0,0,0,0,0,0,0,0,0],"trees":[{"base_weights":[4.067575E-4,-1.1437513E0,1.5565202E0,-1.7466234E0,-1.5298559E-1,6.488797E-1,1.7292337E0,-1.8487749E0,-1.1965661E0,-1.0055612E0,7.1743274E-1,9.2118794E-1,-7.460888E-1,-8.1798106E-1,1.7527544E0,-1.9191791E0,-1.6691449E0,-1.424853E0,-1.2915835E-1,-8.046296E-1,-1.6778178E0,-9.913859E-2,1.1084299E0,1.4235528E-1,1.3394274E0,-1.2224066E0,2.632701E-1,-9.279149E-2,6.1547464E-1,1.093868E0,1.812446E0,-9.7689144E-2,-9.187275E-2,-8.820412E-2,-1.837661E-2,-8.0141544E-2,-3.8236223E-2,-4.7589164E-2,3.980444E-2,-5.6998994E-2,-2.8563577E-3,-8.4696434E-2,-6.8320595E-3,-5.092764E-2,1.0914015E-2,1.8381074E-4,6.762049E-2,-2.9682219E-2,2.890451E-2,-1.4996094E-2,7.291146E-2,-8.6106785E-2,-3.652202E-2,-1.9833565E-2,7.124599E-2,-3.966218E-2,7.105797E-2,9.536488E-3,6.384978E-2,5.9956312E-2,9.246414E-2],"categories":[],"categories_nodes":[],"categories_segments":[],"categories_sizes":[],"default_left":[0,0,0,0,0,0,0,0,0,0,0,0,0,0,0,0,0,0,0,0,0,0,0,0,0,0,0,0,0,0,0,0,0,0,0,0,0,0,0,0,0,0,0,0,0,0,0,0,0,0,0,0,0,0,0,0,0,0,0,0,0],"id":0,"left_children":[1,3,5,7,9,11,13,15,17,19,21,23,25,27,29,31,33,35,37,39,41,43,45,47,49,51,53,-1,55,57,59,-1,-1,-1,-1,-1,-1,-1,-1,-1,-1,-1,-1,-1,-1,-1,-1,-1,-1,-1,-1,-1,-1,-1,-1,-1,-1,-1,-1,-1,-1],"loss_changes":[1.2469479E4,2.410476E3,4.6407715E2,1.3877295E2,1.1345908E3,1.8150778E2,1.5076709E2,2.3535645E1,9.62677E1,1.0296912E2,2.4168607E2,1.2968747E2,3.796562E1,3.6084194E1,9.516504E1,6.8652344E-1,7.386719E1,3.7073425E1,5.4675415E1,1.4946222E2,4.158264E0,7.198792E1,1.3792474E2,4.537774E1,5.09368E1,1.1863678E1,2.0440382E1,0E0,1.3174698E1,3.4109085E1,4.891748E1,0E0,0E0,0E0,0E0,0E0,0E0,0E0,0E0,0E0,0E0,0E0,0E0,0E0,0E0,0E0,0E0,0E0,0E0,0E0,0E0,0E0,0E0,0E0,0E0,0E0,0E0,0E0,0E0,0E0,0E0],"parents":[2147483647,0,0,1,1,2,2,3,3,4,4,5,5,6,6,7,7,8,8,9,9,10,10,11,11,12,12,13,13,14,14,15,15,16,16,17,17,18,18,19,19,20,20,21,21,22,22,23,23,24,24,25,25,26,26,28,28,29,29,30,30],"right_children":[2,4,6,8,10,12,14,16,18,20,22,24,26,28,30,32,34,36,38,40,42,44,46,48,50,52,54,-1,56,58,60,-1,-1,-1,-1,-1,-1,-1,-1,-1,-1,-1,-1,-1,-1,-1,-1,-1,-1,-1,-1,-1,-1,-1,-1,-1,-1,-1,-1,-1,-1],"split_conditions":[5E-4,2.331543E-2,4.7180176E-1,1.5258789E-4,4.7180176E-1,1E1,9.765625E-4,2.71933E1,6.853943E-1,1E1,7.45E1,6.674E1,2.183E0,2.15905E1,6.766E1,1.0009766E-2,7.707E1,3.3221E0,8E0,6.713867E-4,4.0461E0,4.842E1,2.48163E1,1.19E-2,3E0,7.516E1,4.72E-2,-9.279149E-2,8.6383057E-1,1.159668E-3,2.43343E1,-9.7689144E-2,-9.187275E-2,-8.820412E-2,-1.837661E-2,-8.0141544E-2,-3.8236223E-2,-4.7589164E-2,3.980444E-2,-5.6998994E-2,-2.8563577E-3,-8.4696434E-2,-6.8320595E-3,-5.092764E-2,1.0914015E-2,1.8381074E-4,6.762049E-2,-2.9682219E-2,2.890451E-2,-1.4996094E-2,7.291146E-2,-8.6106785E-2,-3.652202E-2,-1.9833565E-2,7.124599E-2,-3.966218E-2,7.105797E-2,9.536488E-3,6.384978E-2,5.9956312E-2,9.246414E-2],"split_indices":[6,4,2,4,2,12,4,10,2,12,7,7,8,0,7,2,7,8,12,3,8,7,11,6,12,7,6,0,2,3,10,0,0,0,0,0,0,0,0,0,0,0,0,0,0,0,0,0,0,0,0,0,0,0,0,0,0,0,0,0,0],"split_type":[0,0,0,0,0,0,0,0,0,0,0,0,0,0,0,0,0,0,0,0,0,0,0,0,0,0,0,0,0,0,0,0,0,0,0,0,0,0,0,0,0,0,0,0,0,0,0,0,0,0,0,0,0,0,0,0,0,0,0,0,0],"sum_hessian":[7.0015947E3,4.0350344E3,2.9665603E3,2.5081094E3,1.5269252E3,4.7501703E2,2.4915435E3,2.1132883E3,3.9482108E2,7.7129034E2,7.556349E2,3.9771896E2,7.729805E1,2.2487085E1,2.4690564E3,1.5112749E3,6.020133E2,3.2498218E2,6.9838905E1,5.954981E2,1.7579225E2,2.4490784E2,5.1072705E2,1.3942549E2,2.582935E2,5.2372383E1,2.492567E1,1.2872499E1,9.614586E0,2.0670749E2,2.2623489E3,1.045625E3,4.6565E2,5.607572E2,4.1256065E1,2.5484506E2,7.013711E1,3.6954487E1,3.288442E1,4.1071494E2,1.8478314E2,1.7387549E2,1.9167529E0,6.228588E1,1.8262195E2,9.257185E1,4.181552E2,5.1713627E1,8.771186E1,1.7350414E1,2.4094307E2,2.4740744E1,2.7631638E1,1.6315338E1,8.610332E0,3.5037735E0,6.110812E0,3.5191837E1,1.7151564E2,1.3008182E2,2.132267E3],"tree_param":{"num_deleted":"0","num_feature":"13","num_nodes":"61","size_leaf_vector":"1"}},{"base_weights":[-1.4750867E-3,-1.1018368E0,1.4902291E0,-1.6898385E0,-9.25521E-2,-2.136227E-1,1.6246622E0,-1.3166994E0,-1.7756279E0,-7.6722306E-1,8.111402E-1,2.5883132E-1,-1.2746289E0,4.0864295E-1,1.7021594E0,-1.7169896E0,-9.081386E-1,-9.230113E-2,-1.6157849E0,-1.2426493E0,-3.7723947E-1,1.0141912E0,-8.173896E-1,-6.918564E-1,6.784806E-1,-1.4527867E0,5.8820134E-1,-4.250469E-1,8.8080996E-1,1.3695873E0,1.7559397E0,-8.704158E-2,-1.6928656E-2,-5.377951E-2,-3.1361156E-3,-6.344005E-2,-8.566008E-2,-7.741763E-2,-5.027732E-2,-4.833381E-2,1.600737E-2,2.0676605E-2,6.747406E-2,-5.6492496E-2,3.209948E-2,-4.918911E-2,1.0497439E-2,6.357168E-2,7.5662523E-3,-7.481161E-2,1.3116545E-2,-3.152105E-2,5.6188043E-2,-3.9421596E-2,2.2209508E-3,-2.6873618E-3,5.3740054E-2,7.2594024E-2,1.1542085E-2,8.051553E-2,9.096283E-2],"categories":[],"categories_nodes":[],"categories_segments":[],"categories_sizes":[],"default_left":[0,0,0,0,0,0,0,0,0,0,0,0,0,0,0,0,0,0,0,0,0,0,0,0,0,0,0,0,0,0,0,0,0,0,0,0,0,0,0,0,0,0,0,0,0,0,0,0,0,0,0,0,0,0,0,0,0,0,0,0,0],"id":1,"left_children":[1,3,5,7,9,11,13,15,17,19,21,23,25,27,29,31,33,-1,35,37,39,41,43,45,47,49,51,53,55,57,59,-1,-1,-1,-1,-1,-1,-1,-1,-1,-1,-1,-1,-1,-1,-1,-1,-1,-1,-1,-1,-1,-1,-1,-1,-1,-1,-1,-1,-1,-1],"loss_changes":[1.1545877E4,2.4022012E3,6.8431494E2,7.954053E1,9.098275E2,1.102363E2,2.601377E2,7.726984E1,2.038623E1,1.5793079E2,2.1177258E2,6.1323296E1,2.3329277E1,6.616785E1,4.4128418E1,7.375061E0,3.4002274E1,0E0,1.9560791E1,2.631665E1,1.9382831E2,1.1376282E2,3.32262E1,1.2634146E1,3.304297E1,5.0195923E0,5.0309577E0,1.0459971E1,1.9462227E1,3.402832E1,1.76875E1,0E0,0E0,0E0,0E0,0E0,0E0,0E0,0E0,0E0,0E0,0E0,0E0,0E0,0E0,0E0,0E0,0E0,0E0,0E0,0E0,0E0,0E0,0E0,0E0,0E0,0E0,0E0,0E0,0E0,0E0],"parents":[2147483647,0,0,1,1,2,2,3,3,4,4,5,5,6,6,7,7,8,8,9,9,10,10,11,11,12,12,13,13,14,14,15,15,16,16,18,18,19,19,20,20,21,21,22,22,23,23,24,24,25,25,26,26,27,27,28,28,29,29,30,30],"right_children":[2,4,6,8,10,12,14,16,18,20,22,24,26,28,30,32,34,-1,36,38,40,42,44,46,48,50,52,54,56,58,60,-1,-1,-1,-1,-1,-1,-1,-1,-1,-1,-1,-1,-1,-1,-1,-1,-1,-1,-1,-1,-1,-1,-1,-1,-1,-1,-1,-1,-1,-1],"split_conditions":[5E-4,1.4770508E-2,3.326416E-3,9.9587E2,1.5258789E-4,1.00226E3,6.093E1,4.905E1,2.3010254E-2,5.827E1,1.00226E3,6.923E1,2.065E-1,1.9836426E-3,2.7999878E-1,3.579712E-2,1.5258789E-4,-9.230113E-2,1.00096E3,3.913E1,2.55791E1,8.01E1,9.427E1,6.58E-2,9.9521E2,3.18585E1,3.6413574E-1,1.72E-2,3.8E-3,1.00153E3,5.05E-2,-8.704158E-2,-1.6928656E-2,-5.377951E-2,-3.1361156E-3,-6.344005E-2,-8.566008E-2,-7.741763E-2,-5.027732E-2,-4.833381E-2,1.600737E-2,2.0676605E-2,6.747406E-2,-5.6492496E-2,3.209948E-2,-4.918911E-2,1.0497439E-2,6.357168E-2,7.5662523E-3,-7.481161E-2,1.3116545E-2,-3.152105E-2,5.6188043E-2,-3.9421596E-2,2.2209508E-3,-2.6873618E-3,5.3740054E-2,7.2594024E-2,1.1542085E-2,8.051553E-2,9.096283E-2],"split_indices":[6,5,5,1,3,1,7,7,2,7,1,7,6,3,5,3,5,0,1,7,0,7,7,6,1,0,3,6,6,1,6,0,0,0,0,0,0,0,0,0,0,0,0,0,0,0,0,0,0,0,0,0,0,0,0,0,0,0,0,0,0],"split_type":[0,0,0,0,0,0,0,0,0,0,0,0,0,0,0,0,0,0,0,0,0,0,0,0,0,0,0,0,0,0,0,0,0,0,0,0,0,0,0,0,0,0,0,0,0,0,0,0,0,0,0,0,0,0,0,0,0,0,0,0,0],"sum_hessian":[7.0321035E3,4.0470452E3,2.985058E3,2.556799E3,1.4902462E3,2.1825296E2,2.7668052E3,4.8100876E2,2.0757903E3,8.5332733E2,6.3691895E2,1.5153305E2,6.671991E1,1.6614081E2,2.6006643E3,2.4134589E2,2.3966287E2,1.4337976E3,6.419926E2,3.835535E2,4.6977383E2,5.6664484E2,7.02741E1,4.620654E1,1.05326515E2,6.109683E1,5.6230764E0,6.0108685E1,1.0603213E2,3.6569678E2,2.2349675E3,2.3698395E2,4.361939E0,1.9981357E2,3.9849308E1,1.4380482E2,4.9818777E2,1.6512424E2,2.1842928E2,2.5438203E2,2.153918E2,2.037923E2,3.628525E2,5.8067387E1,1.2206714E1,3.48381E1,1.1368439E1,4.890525E1,5.642127E1,5.9711895E1,1.3849338E0,1.6626729E0,3.9604037E0,3.3499405E1,2.6609278E1,1.8350592E1,8.768153E1,3.4079382E2,2.4902958E1,6.8527167E2,1.5496958E3],"tree_param":{"num_deleted":"0","num_feature":"13","num_nodes":"61","size_leaf_vector":"1"}},{"base_weights":[2.4816184E-3,-1.4418987E0,9.8083913E-1,-1.708971E0,-9.267625E-1,-1.3025655E0,1.2681024E0,-1.2220049E0,-1.7554922E0,-5.506065E-1,-1.3175347E0,-6.2720823E-1,-1.4823529E0,-2.0351171E-1,1.4496465E0,-1.3658901E0,1.8759046E-1,-8.8190526E-2,-1.4874574E0,-1.0986817E0,8.2180135E-2,-1.4872943E0,-6.329878E-1,-1.3577632E0,4.5928463E-1,-1.5489208E0,-6.6271454E-1,-6.294563E-1,6.1894476E-1,1.5197138E0,4.7035363E-1,-8.77218E-2,-5.4171767E-2,-2.9495034E-2,4.143154E-2,-7.5531065E-2,-8.827406E-3,-8.364399E-2,-3.5760533E-2,-1.3614925E-2,4.4706784E-2,-6.3128404E-2,-8.229493E-2,-9.671847E-3,-7.3875226E-2,-4.4560872E-2,-8.170211E-2,-4.8505124E-3,6.398835E-2,-6.653564E-2,-8.7084815E-2,-5.470356E-2,1.918706E-2,-4.5357265E-2,-5.6908415E-3,1.696074E-2,6.523975E-2,5.6303073E-2,8.010021E-2,-4.8944604E-2,3.3918757E-2],"categories":[],"categories_nodes":[],"categories_segments":[],"categories_sizes":[],"default_left":[0,0,0,0,0,0,0,0,0,0,0,0,0,0,0,0,0,0,0,0,0,0,0,0,0,0,0,0,0,0,0,0,0,0,0,0,0,0,0,0,0,0,0,0,0,0,0,0,0,0,0,0,0,0,0,0,0,0,0,0,0],"id":2,"left_children":[1,3,5,7,9,11,13,15,17,19,21,23,25,27,29,31,33,-1,35,37,39,41,43,45,47,49,51,53,55,57,59,-1,-1,-1,-1,-1,-1,-1,-1,-1,-1,-1,-1,-1,-1,-1,-1,-1,-1,-1,-1,-1,-1,-1,-1,-1,-1,-1,-1,-1,-1],"loss_changes":[9.870902E3,3.864956E2,2.733243E3,3.991162E1,1.4116437E2,5.5634155E1,9.8867725E2,3.375807E1,1.1494141E0,1.7126523E2,5.3993958E1,7.973985E1,1.9007324E1,1.4302228E2,2.2526709E2,1.456134E1,8.552184E0,0E0,1.4738998E0,5.7055298E1,6.6444756E1,1.13966675E1,3.5230457E1,6.25856E0,1.8756603E1,1.1935974E1,1.3658564E1,3.837529E1,2.6305542E1,9.774365E1,6.739647E1,0E0,0E0,0E0,0E0,0E0,0E0,0E0,0E0,0E0,0E0,0E0,0E0,0E0,0E0,0E0,0E0,0E0,0E0,0E0,0E0,0E0,0E0,0E0,0E0,0E0,0E0,0E0,0E0,0E0,0E0],"parents":[2147483647,0,0,1,1,2,2,3,3,4,4,5,5,6,6,7,7,8,8,9,9,10,10,11,11,12,12,13,13,14,14,15,15,16,16,18,18,19,19,20,20,21,21,22,22,23,23,24,24,25,25,26,26,27,27,28,28,29,29,30,30],"right_children":[2,4,6,8,10,12,14,16,18,20,22,24,26,28,30,32,34,-1,36,38,40,42,44,46,48,50,52,54,56,58,60,-1,-1,-1,-1,-1,-1,-1,-1,-1,-1,-1,-1,-1,-1,-1,-1,-1,-1,-1,-1,-1,-1,-1,-1,-1,-1,-1,-1,-1,-1],"split_conditions":[1.4770508E-2,1.0009766E-2,6.6833496E-3,9.9428E2,9.9881E2,9.954E2,6.093E1,7.662E1,1.5258789E-4,3.326416E-3,4.7180176E-1,6.734E1,1.5258789E-4,1.01623535E-2,1.00109E3,3.969E1,6.8359375E-3,-8.8190526E-2,7.325134E-1,4.531E1,1.5258789E-4,2.16367E1,1.9306E1,9.9213E2,8.8082886E-1,1.00384E3,1.5258789E-4,4.905E1,3.010254E-1,1.0031128E-1,8.648682E-2,-8.77218E-2,-5.4171767E-2,-2.9495034E-2,4.143154E-2,-7.5531065E-2,-8.827406E-3,-8.364399E-2,-3.5760533E-2,-1.3614925E-2,4.4706784E-2,-6.3128404E-2,-8.229493E-2,-9.671847E-3,-7.3875226E-2,-4.4560872E-2,-8.170211E-2,-4.8505124E-3,6.398835E-2,-6.653564E-2,-8.7084815E-2,-5.470356E-2,1.918706E-2,-4.5357265E-2,-5.6908415E-3,1.696074E-2,6.523975E-2,5.6303073E-2,8.010021E-2,-4.8944604E-2,3.3918757E-2],"split_indices":[5,4,4,1,1,1,7,7,5,3,2,7,4,3,1,7,2,0,2,7,5,11,9,1,2,1,3,7,4,4,5,0,0,0,0,0,0,0,0,0,0,0,0,0,0,0,0,0,0,0,0,0,0,0,0,0,0,0,0,0,0],"split_type":[0,0,0,0,0,0,0,0,0,0,0,0,0,0,0,0,0,0,0,0,0,0,0,0,0,0,0,0,0,0,0,0,0,0,0,0,0,0,0,0,0,0,0,0,0,0,0,0,0,0,0,0,0,0,0,0,0,0,0,0,0],"sum_hessian":[6.9831816E3,2.8197788E3,4.163403E3,1.855485E3,9.642938E2,4.6485095E2,3.6985518E3,1.6418004E2,1.6913049E3,4.925631E2,4.717307E2,9.867494E1,3.6617603E2,4.0614868E2,3.292403E3,1.4900162E2,1.5178416E1,1.6349838E3,5.6321125E1,2.635545E2,2.2900862E2,3.770532E2,9.467751E1,5.8852802E1,3.982214E1,3.3784756E2,2.8328438E1,2.6772855E2,1.3842012E2,3.0720493E3,2.2035368E2,6.052788E1,8.847374E1,6.895241E0,8.283175E0,5.5193504E1,1.1276194E0,1.0418643E2,1.5936807E2,1.598757E2,6.913293E1,1.5971436E2,2.1733884E2,6.3076664E1,3.1600847E1,2.3460844E1,3.5391956E1,2.4257254E1,1.5564887E1,1.6217737E2,1.7567021E2,2.002747E1,8.300969E0,1.7352196E2,9.420659E1,9.9381226E1,3.90389E1,5.3369543E2,2.538354E3,2.719382E1,1.9315987E2],"tree_param":{"num_deleted":"0","num_feature":"13","num_nodes":"61","size_leaf_vector":"1"}},{"base_weights":[-2.6580659E-3,-1.4422199E0,8.741875E-1,-1.6096989E0,-7.333937E-1,-3.33086E-1,1.3207022E0,-1.1245443E0,-1.6563416E0,-1.0668733E0,3.852344E-1,2.865459E-2,-1.120656E0,1.4220059E0,2.0406948E-1,-1.3520194E0,7.496367E-1,-1.526568E0,-8.44021E-2,-7.022322E-1,-1.4530463E0,6.328505E-1,-1.249887E0,-7.464313E-1,5.8810145E-1,-7.1678287E-1,-1.5769023E0,6.3372505E-1,1.5154481E0,-3.6868876E-1,5.238256E-1,-8.0320105E-2,-4.8107475E-2,6.7339316E-2,-3.337369E-2,-8.159613E-2,-5.0336834E-2,-5.037531E-2,1.7106267E-2,-8.083107E-2,-4.807919E-2,4.370163E-2,-5.1042624E-2,-7.956811E-2,-5.204077E-3,-3.7176989E-3,-5.4475226E-2,3.712163E-2,-2.3231653E-2,-4.947224E-2,1.3850416E-2,-6.0308307E-2,-8.55747E-2,4.8481908E-2,-3.951567E-2,6.60953E-2,7.894954E-2,-6.597334E-3,-5.968831E-2,4.3921842E-5,3.7642576E-2],"categories":[],"categories_nodes":[],"categories_segments":[],"categories_sizes":[],"default_left":[0,0,0,0,0,0,0,0,0,0,0,0,0,0,0,0,0,0,0,0,0,0,0,0,0,0,0,0,0,0,0,0,0,0,0,0,0,0,0,0,0,0,0,0,0,0,0,0,0,0,0,0,0,0,0,0,0,0,0,0,0],"id":3,"left_children":[1,3,5,7,9,11,13,15,17,19,21,23,25,27,29,31,33,35,-1,37,39,41,43,45,47,49,51,53,55,57,59,-1,-1,-1,-1,-1,-1,-1,-1,-1,-1,-1,-1,-1,-1,-1,-1,-1,-1,-1,-1,-1,-1,-1,-1,-1,-1,-1,-1,-1,-1],"loss_changes":[8.73374E3,3.0974414E2,2.3183882E3,4.6058594E1,1.8782657E2,3.3101324E2,3.5481104E2,8.152789E1,5.362793E0,5.3515503E1,4.7802773E1,3.4606686E2,6.625275E1,2.1102246E2,4.8226692E1,1.5192383E1,1.8740973E1,1.9678894E1,0E0,6.446897E1,1.3491119E1,4.1376892E1,5.940876E0,7.70641E1,7.5648865E1,5.333223E1,6.4620056E0,1.4748193E2,2.954541E1,1.8311031E1,2.0207073E1,0E0,0E0,0E0,0E0,0E0,0E0,0E0,0E0,0E0,0E0,0E0,0E0,0E0,0E0,0E0,0E0,0E0,0E0,0E0,0E0,0E0,0E0,0E0,0E0,0E0,0E0,0E0,0E0,0E0,0E0],"parents":[2147483647,0,0,1,1,2,2,3,3,4,4,5,5,6,6,7,7,8,8,9,9,10,10,11,11,12,12,13,13,14,14,15,15,16,16,17,17,19,19,20,20,21,21,22,22,23,23,24,24,25,25,26,26,27,27,28,28,29,29,30,30],"right_children":[2,4,6,8,10,12,14,16,18,20,22,24,26,28,30,32,34,36,-1,38,40,42,44,46,48,50,52,54,56,58,60,-1,-1,-1,-1,-1,-1,-1,-1,-1,-1,-1,-1,-1,-1,-1,-1,-1,-1,-1,-1,-1,-1,-1,-1,-1,-1,-1,-1,-1,-1],"split_conditions":[2.4810791E-2,1.5258789E-4,4.7180176E-1,9.9434E2,6.853943E-1,9.9936E2,1.00153E3,7E0,9.9991E2,9.9869E2,1.00384E3,6.713867E-4,1E1,1.5258789E-4,7.878723E-1,3.3448E0,3.11134E1,3.5369873E-1,-8.44021E-2,8E0,7.015991E-2,3.328E1,1.2E1,3.05198E1,1E1,3.1311035E-2,2.16367E1,3.39851E1,1.7300415E-1,1.7218018E-1,3.2330322E-1,-8.0320105E-2,-4.8107475E-2,6.7339316E-2,-3.337369E-2,-8.159613E-2,-5.0336834E-2,-5.037531E-2,1.7106267E-2,-8.083107E-2,-4.807919E-2,4.370163E-2,-5.1042624E-2,-7.956811E-2,-5.204077E-3,-3.7176989E-3,-5.4475226E-2,3.712163E-2,-2.3231653E-2,-4.947224E-2,1.3850416E-2,-6.0308307E-2,-8.55747E-2,4.8481908E-2,-3.951567E-2,6.60953E-2,7.894954E-2,-6.597334E-3,-5.968831E-2,4.3921842E-5,3.7642576E-2],"split_indices":[4,4,2,1,2,1,1,12,1,1,1,3,12,3,2,8,0,2,0,12,2,9,12,0,12,3,11,10,4,3,4,0,0,0,0,0,0,0,0,0,0,0,0,0,0,0,0,0,0,0,0,0,0,0,0,0,0,0,0,0,0],"split_type":[0,0,0,0,0,0,0,0,0,0,0,0,0,0,0,0,0,0,0,0,0,0,0,0,0,0,0,0,0,0,0,0,0,0,0,0,0,0,0,0,0,0,0,0,0,0,0,0,0,0,0,0,0,0,0,0,0,0,0,0,0],"sum_hessian":[6.917057E3,2.618117E3,4.29894E3,2.1167158E3,5.0140112E2,1.1607611E3,3.138179E3,1.8785461E2,1.9288612E3,3.8628894E2,1.1511218E2,7.960768E2,3.646843E2,2.8769053E3,2.6127362E2,1.677704E2,2.0084213E1,3.8832166E2,1.5405396E3,2.0013312E2,1.8615584E2,1.0050507E2,1.4607114E1,3.335817E2,4.624951E2,1.9480885E2,1.6987543E2,3.0570987E2,2.5711953E3,9.355022E1,1.677234E2,9.963812E1,6.813228E1,1.4164941E1,5.9192724E0,3.2110397E2,6.72177E1,1.548922E2,4.524092E1,1.3795157E2,4.8204266E1,8.812419E1,1.2380883E1,1.0953785E1,3.653329E0,1.1314616E2,2.2043553E2,4.0361917E2,5.8875904E1,1.5287077E2,4.1938084E1,4.789878E1,1.2197665E2,2.4761876E2,5.8091114E1,6.409026E2,1.9302928E3,7.359367E1,1.9956543E1,5.1388683E1,1.16334724E2],"tree_param":{"num_deleted":"0","num_feature":"13","num_nodes":"61","size_leaf_vector":"1"}},{"base_weights":[8.241523E-3,-1.3447487E0,9.11764E-1,-1.5595722E0,-8.328732E-1,-1.160841E0,1.1720685E0,-1.1357228E0,-1.6191438E0,-4.493238E-1,-1.2148663E0,-5.1486284E-1,-1.3400041E0,-4.8313458E-2,1.3645394E0,-1.4616569E0,-6.556436E-1,-1.6317915E0,-1.2639099E0,-1.0351037E0,1.14993155E-1,-1.4294413E0,-4.8750967E-1,-1.0558718E0,9.19054E-1,-1.0990988E0,-1.567034E0,-5.585756E-1,6.492576E-1,1.4286786E0,5.1372313E-1,-7.517078E-2,1.658851E-2,-8.45194E-2,-1.9608017E-2,-8.229437E-2,-7.401203E-2,-6.4108E-2,-6.8450095E-3,-7.642476E-2,-3.2190602E-2,-1.0570827E-2,4.0632438E-2,-4.3238565E-2,-7.931432E-2,-4.8441283E-2,6.075808E-2,-8.0335364E-2,-3.8375475E-2,6.479611E-2,-5.669514E-2,-6.793487E-2,-7.1456484E-3,-7.914097E-2,-2.224906E-2,-4.2673215E-2,-5.669484E-3,3.7949752E-2,-2.6066167E-2,5.2271623E-2,7.531925E-2,-3.924663E-2,3.423266E-2],"categories":[],"categories_nodes":[],"categories_segments":[],"categories_sizes":[],"default_left":[0,0,0,0,0,0,0,0,0,0,0,0,0,0,0,0,0,0,0,0,0,0,0,0,0,0,0,0,0,0,0,0,0,0,0,0,0,0,0,0,0,0,0,0,0,0,0,0,0,0,0,0,0,0,0,0,0,0,0,0,0,0,0],"id":4,"left_children":[1,3,5,7,9,11,13,15,17,19,21,23,25,27,29,31,33,35,37,39,41,43,45,47,49,51,53,55,57,59,61,-1,-1,-1,-1,-1,-1,-1,-1,-1,-1,-1,-1,-1,-1,-1,-1,-1,-1,-1,-1,-1,-1,-1,-1,-1,-1,-1,-1,-1,-1,-1,-1],"loss_changes":[8.389512E3,3.008706E2,2.2213833E3,4.7004883E1,1.1878546E2,5.2506714E1,8.588779E2,3.686615E1,5.5473633E0,1.3498862E2,6.2899414E1,7.96526E1,1.7924072E1,1.7799762E2,1.7161182E2,1.1220703E1,2.6481964E1,1.050293E0,1.1133575E0,3.768419E1,4.7698498E1,2.6449951E1,7.849308E1,1.0537949E1,2.3379763E1,4.3898026E1,2.5296326E0,3.7811768E1,2.753762E1,8.586865E1,5.0028748E1,0E0,0E0,0E0,0E0,0E0,0E0,0E0,0E0,0E0,0E0,0E0,0E0,0E0,0E0,0E0,0E0,0E0,0E0,0E0,0E0,0E0,0E0,0E0,0E0,0E0,0E0,0E0,0E0,0E0,0E0,0E0,0E0],"parents":[2147483647,0,0,1,1,2,2,3,3,4,4,5,5,6,6,7,7,8,8,9,9,10,10,11,11,12,12,13,13,14,14,15,15,16,16,17,17,18,18,19,19,20,20,21,21,22,22,23,23,24,24,25,25,26,26,27,27,28,28,29,29,30,30],"right_children":[2,4,6,8,10,12,14,16,18,20,22,24,26,28,30,32,34,36,38,40,42,44,46,48,50,52,54,56,58,60,62,-1,-1,-1,-1,-1,-1,-1,-1,-1,-1,-1,-1,-1,-1,-1,-1,-1,-1,-1,-1,-1,-1,-1,-1,-1,-1,-1,-1,-1,-1,-1,-1],"split_conditions":[1.4770508E-2,2.0141602E-2,6.6833496E-3,9.9515E2,9.9857E2,9.954E2,6.48E1,5.484E1,1.5258789E-4,1.9836426E-3,2.7024E0,8E0,1.00384E3,6.6833496E-3,1.00109E3,1.0345459E-2,2.72847E1,3.3569336E-4,4.3118286E-1,4.531E1,1.5258789E-4,2E0,8.674E1,3.437E1,3.20112E1,7.577E1,9.65E1,4.905E1,5.2494E0,1.0031128E-1,8.648682E-2,-7.517078E-2,1.658851E-2,-8.45194E-2,-1.9608017E-2,-8.229437E-2,-7.401203E-2,-6.4108E-2,-6.8450095E-3,-7.642476E-2,-3.2190602E-2,-1.0570827E-2,4.0632438E-2,-4.3238565E-2,-7.931432E-2,-4.8441283E-2,6.075808E-2,-8.0335364E-2,-3.8375475E-2,6.479611E-2,-5.669514E-2,-6.793487E-2,-7.1456484E-3,-7.914097E-2,-2.224906E-2,-4.2673215E-2,-5.669484E-3,3.7949752E-2,-2.6066167E-2,5.2271623E-2,7.531925E-2,-3.924663E-2,3.423266E-2],"split_indices":[5,4,4,1,1,1,7,7,5,3,8,12,1,3,1,5,11,4,3,7,5,12,7,7,11,7,7,7,8,4,5,0,0,0,0,0,0,0,0,0,0,0,0,0,0,0,0,0,0,0,0,0,0,0,0,0,0,0,0,0,0,0,0],"split_type":[0,0,0,0,0,0,0,0,0,0,0,0,0,0,0,0,0,0,0,0,0,0,0,0,0,0,0,0,0,0,0,0,0,0,0,0,0,0,0,0,0,0,0,0,0,0,0,0,0,0,0,0,0,0,0,0,0,0,0,0,0,0,0],"sum_hessian":[6.860824E3,2.7469236E3,4.113901E3,1.9334485E3,8.134751E2,4.5864014E2,3.6552605E3,2.4073015E2,1.6927183E3,4.0699658E2,4.0647855E2,1.004257E2,3.5821445E2,4.9805304E2,3.1572075E3,1.4216632E2,9.8563835E1,1.6310533E3,6.1664963E1,1.9929129E2,2.0770528E2,3.1313608E2,9.334247E1,7.310661E1,2.7319082E1,1.7663031E2,1.8158414E2,2.8776025E2,2.1029279E2,2.9352527E3,2.2195471E2,1.3908943E2,3.0768857E0,1.890502E1,7.965881E1,1.4832362E3,1.4781708E2,6.0546844E1,1.1181195E0,8.686025E1,1.1243103E2,1.4197629E2,6.5729E1,6.9486374E1,2.4364969E2,7.310729E1,2.023518E1,2.35497E1,4.955691E1,2.3393425E1,3.9256577E0,1.385845E2,3.80458E1,1.7866005E2,2.924079E0,1.7254817E2,1.1521209E2,1.9258984E2,1.7702944E1,4.972547E2,2.437998E3,2.5398134E1,1.9655658E2],"tree_param":{"num_deleted":"0","num_feature":"13","num_nodes":"63","size_leaf_vector":"1"}},{"base_weights":[-1.1361156E-2,-9.4625795E-1,1.2786288E0,-1.4449152E0,-1.0536459E-1,-1.3798672E-1,1.3952253E0,-1.0969232E0,-1.5276215E0,-1.2611694E0,3.739767E-1,3.1258932E-1,-1.0040187E0,5.131182E-1,1.4721692E0,-1.419417E0,-6.9874245E-1,-1.5828878E0,-1.2859831E0,-1.0672966E0,-1.5266967E0,-2.7507597E-1,9.0114903E-1,6.263456E-1,-1.1015612E0,-1.046149E-2,-1.3294021E0,-2.2600032E-1,8.414136E-1,1.5027893E0,9.750666E-1,-8.104656E-2,-5.8688283E-2,-4.1172516E-2,-2.9927397E-3,-7.953342E-2,-6.6700734E-2,-5.618285E-2,-7.3908366E-2,-6.3817434E-2,-6.457746E-3,-7.786163E-2,-3.4970537E-2,-4.7170192E-2,1.6500561E-3,5.2720975E-2,7.822958E-3,-1.29131405E-2,5.6138087E-2,-6.305847E-2,5.7150926E-2,4.1487526E-2,-8.18909E-2,5.775654E-2,-7.577651E-2,4.400627E-2,-1.7198866E-2,-4.6524773E-3,5.1191825E-2,6.940335E-2,7.917807E-2,1.12583935E-2,6.155261E-2],"categories":[],"categories_nodes":[],"categories_segments":[],"categories_sizes":[],"default_left":[0,0,0,0,0,0,0,0,0,0,0,0,0,0,0,0,0,0,0,0,0,0,0,0,0,0,0,0,0,0,0,0,0,0,0,0,0,0,0,0,0,0,0,0,0,0,0,0,0,0,0,0,0,0,0,0,0,0,0,0,0,0,0],"id":5,"left_children":[1,3,5,7,9,11,13,15,17,19,21,23,25,27,29,31,33,35,37,39,41,43,45,47,49,51,53,55,57,59,61,-1,-1,-1,-1,-1,-1,-1,-1,-1,-1,-1,-1,-1,-1,-1,-1,-1,-1,-1,-1,-1,-1,-1,-1,-1,-1,-1,-1,-1,-1,-1,-1],"loss_changes":[8.199765E3,1.6528447E3,4.720874E2,6.954541E1,8.140896E2,8.5448906E1,1.7841504E2,6.0482544E1,2.463086E1,2.054419E1,3.5569434E2,6.470375E1,2.4201126E1,5.1953167E1,3.5484863E1,1.1143005E1,1.717604E1,1.0166016E0,1.0100891E1,4.9312866E1,3.4441223E0,9.605228E1,6.528992E1,5.2420998E1,1.0956696E1,2.8003271E1,2.7839798E1,8.967589E0,2.5311798E1,1.8973633E1,2.7307495E1,0E0,0E0,0E0,0E0,0E0,0E0,0E0,0E0,0E0,0E0,0E0,0E0,0E0,0E0,0E0,0E0,0E0,0E0,0E0,0E0,0E0,0E0,0E0,0E0,0E0,0E0,0E0,0E0,0E0,0E0,0E0,0E0],"parents":[2147483647,0,0,1,1,2,2,3,3,4,4,5,5,6,6,7,7,8,8,9,9,10,10,11,11,12,12,13,13,14,14,15,15,16,16,17,17,18,18,19,19,20,20,21,21,22,22,23,23,24,24,25,25,26,26,27,27,28,28,29,29,30,30],"right_children":[2,4,6,8,10,12,14,16,18,20,22,24,26,28,30,32,34,36,38,40,42,44,46,48,50,52,54,56,58,60,62,-1,-1,-1,-1,-1,-1,-1,-1,-1,-1,-1,-1,-1,-1,-1,-1,-1,-1,-1,-1,-1,-1,-1,-1,-1,-1,-1,-1,-1,-1,-1,-1],"split_conditions":[5E-4,1.4770508E-2,3.326416E-3,9.958E2,6.6833496E-3,1E1,6.379E1,5.277E1,2.331543E-2,1.00384E3,7.686E1,1.00331E3,9.9746E2,3.5095215E-3,9.9962E2,3.84E1,1.5258789E-4,1.5258789E-4,1E1,7.913E1,1.5258789E-4,4.842E1,1.00053E3,6.999E1,9.4332886E-1,3.0508E1,1.44358E1,2.53022E1,5.2E-3,8.96E-2,2.4987793E-1,-8.104656E-2,-5.8688283E-2,-4.1172516E-2,-2.9927397E-3,-7.953342E-2,-6.6700734E-2,-5.618285E-2,-7.3908366E-2,-6.3817434E-2,-6.457746E-3,-7.786163E-2,-3.4970537E-2,-4.7170192E-2,1.6500561E-3,5.2720975E-2,7.822958E-3,-1.29131405E-2,5.6138087E-2,-6.305847E-2,5.7150926E-2,4.1487526E-2,-8.18909E-2,5.775654E-2,-7.577651E-2,4.400627E-2,-1.7198866E-2,-4.6524773E-3,5.1191825E-2,6.940335E-2,7.917807E-2,1.12583935E-2,6.155261E-2],"split_indices":[6,5,5,1,4,12,7,7,4,1,7,1,1,3,1,7,5,5,12,7,4,7,1,7,4,11,11,0,6,6,5,0,0,0,0,0,0,0,0,0,0,0,0,0,0,0,0,0,0,0,0,0,0,0,0,0,0,0,0,0,0,0,0],"split_type":[0,0,0,0,0,0,0,0,0,0,0,0,0,0,0,0,0,0,0,0,0,0,0,0,0,0,0,0,0,0,0,0,0,0,0,0,0,0,0,0,0,0,0,0,0,0,0,0,0,0,0,0,0,0,0,0,0,0,0,0,0,0,0],"sum_hessian":[6.7970967E3,3.941113E3,2.8559836E3,2.473555E3,1.4675582E3,2.1717572E2,2.6388079E3,4.777319E2,1.995823E3,4.2973495E2,1.0378232E3,1.4327313E2,7.390259E1,2.1232442E2,2.4264836E3,2.6253516E2,2.1519673E2,1.6198E3,3.7602286E2,2.5128242E2,1.7845253E2,4.6535635E2,5.724669E2,1.1771329E2,2.5559849E1,1.8486444E1,5.541614E1,6.539864E1,1.4692577E2,2.2837856E3,1.4269781E2,1.4114876E2,1.213864E2,1.7980981E2,3.538692E1,1.5654673E3,5.4332764E1,2.0755809E2,1.6846477E2,2.0519666E2,4.608577E1,1.7124925E2,7.203278E0,1.4617943E2,3.1917694E2,4.7440912E2,9.805781E1,4.248508E1,7.522821E1,2.4272034E1,1.2878168E0,1.2515009E1,5.971436E0,3.4993215E0,5.191682E1,5.6803937E0,5.9718246E1,2.4077656E1,1.22848114E2,9.511021E2,1.3326836E3,3.6793232E1,1.0590459E2],"tree_param":{"num_deleted":"0","num_feature":"13","num_nodes":"63","size_leaf_vector":"1"}},{"base_weights":[-9.6083535E-3,-9.0798897E-1,1.2337744E0,-1.4079179E0,-1.1564244E-1,-1.5539159E-1,1.3475114E0,-1.0758277E0,-1.4824753E0,-1.0699905E0,4.0105176E-1,2.6684868E-1,-9.770974E-1,5.1950216E-1,1.4169275E0,-1.487015E0,-7.8236616E-1,-1.5336291E0,-1.2543582E0,-1.2548213E0,-4.6543676E-1,-5.7168657E-1,7.080091E-1,5.8018655E-1,-1.159948E0,-6.262318E-3,-1.2919061E0,-9.6236475E-2,8.116024E-1,1.1284264E0,1.4646078E0,-7.7870585E-2,-5.9567332E-2,-5.8370747E-2,-3.1896296E-3,-7.7000044E-2,-6.325516E-2,-6.856092E-2,-4.3210078E-2,-5.313118E-2,-7.492253E-2,-5.1098656E-2,7.6487698E-3,-4.2109646E-2,-8.763588E-3,4.2908914E-2,-3.2984596E-3,-4.0559676E-3,6.255545E-2,-1.1594067E-2,-7.1084924E-2,2.9617105E-2,-7.650544E-2,-6.962135E-2,5.7578076E-2,-4.7047015E-2,1.3459823E-2,-2.334867E-3,4.784513E-2,6.1271537E-2,1.266368E-2,6.836905E-2,7.7456705E-2],"categories":[],"categories_nodes":[],"categories_segments":[],"categories_sizes":[],"default_left":[0,0,0,0,0,0,0,0,0,0,0,0,0,0,0,0,0,0,0,0,0,0,0,0,0,0,0,0,0,0,0,0,0,0,0,0,0,0,0,0,0,0,0,0,0,0,0,0,0,0,0,0,0,0,0,0,0,0,0,0,0,0,0],"id":6,"left_children":[1,3,5,7,9,11,13,15,17,19,21,23,25,27,29,31,33,35,37,39,41,43,45,47,49,51,53,55,57,59,61,-1,-1,-1,-1,-1,-1,-1,-1,-1,-1,-1,-1,-1,-1,-1,-1,-1,-1,-1,-1,-1,-1,-1,-1,-1,-1,-1,-1,-1,-1,-1,-1],"loss_changes":[7.4279497E3,1.5290212E3,4.4091602E2,5.7009277E1,7.373936E2,7.381042E1,1.4745752E2,5.1641876E1,2.0601074E1,5.8104004E1,2.901308E2,6.3627068E1,2.2048973E1,3.6231476E1,3.10625E1,1.9147644E0,7.116397E1,7.414551E-1,1.5185913E1,1.7215027E1,4.3028492E1,2.4869843E1,8.583453E1,5.162471E1,5.9108315E0,1.794289E1,1.4988052E1,2.0493628E1,1.7060417E1,2.8695038E1,1.4626953E1,0E0,0E0,0E0,0E0,0E0,0E0,0E0,0E0,0E0,0E0,0E0,0E0,0E0,0E0,0E0,0E0,0E0,0E0,0E0,0E0,0E0,0E0,0E0,0E0,0E0,0E0,0E0,0E0,0E0,0E0,0E0,0E0],"parents":[2147483647,0,0,1,1,2,2,3,3,4,4,5,5,6,6,7,7,8,8,9,9,10,10,11,11,12,12,13,13,14,14,15,15,16,16,17,17,18,18,19,19,20,20,21,21,22,22,23,23,24,24,25,25,26,26,27,27,28,28,29,29,30,30],"right_children":[2,4,6,8,10,12,14,16,18,20,22,24,26,28,30,32,34,36,38,40,42,44,46,48,50,52,54,56,58,60,62,-1,-1,-1,-1,-1,-1,-1,-1,-1,-1,-1,-1,-1,-1,-1,-1,-1,-1,-1,-1,-1,-1,-1,-1,-1,-1,-1,-1,-1,-1,-1,-1],"split_conditions":[5E-4,1.0009766E-2,3.326416E-3,9.958E2,2.0141602E-2,1E1,6.337E1,4.424E1,2.331543E-2,1.5258789E-4,6.01E1,1.00415E3,9.9746E2,1.14E-2,2.7999878E-1,3.969E1,3.3221E0,1.5258789E-4,2.7485E0,1.00384E3,7.334E1,4.842E1,1.00109E3,7.686E1,8.027E-1,3.12018E1,4.835E-1,1.0031128E-1,4.2E1,1.00007E3,1.421E-1,-7.7870585E-2,-5.9567332E-2,-5.8370747E-2,-3.1896296E-3,-7.7000044E-2,-6.325516E-2,-6.856092E-2,-4.3210078E-2,-5.313118E-2,-7.492253E-2,-5.1098656E-2,7.6487698E-3,-4.2109646E-2,-8.763588E-3,4.2908914E-2,-3.2984596E-3,-4.0559676E-3,6.255545E-2,-1.1594067E-2,-7.1084924E-2,2.9617105E-2,-7.650544E-2,-6.962135E-2,5.7578076E-2,-4.7047015E-2,1.3459823E-2,-2.334867E-3,4.784513E-2,6.1271537E-2,1.266368E-2,6.836905E-2,7.7456705E-2],"split_indices":[6,5,5,1,4,12,7,7,4,4,7,1,1,6,5,7,8,5,8,1,7,7,1,7,8,9,6,5,7,1,6,0,0,0,0,0,0,0,0,0,0,0,0,0,0,0,0,0,0,0,0,0,0,0,0,0,0,0,0,0,0,0,0],"split_type":[0,0,0,0,0,0,0,0,0,0,0,0,0,0,0,0,0,0,0,0,0,0,0,0,0,0,0,0,0,0,0,0,0,0,0,0,0,0,0,0,0,0,0,0,0,0,0,0,0,0,0,0,0,0,0,0,0,0,0,0,0,0,0],"sum_hessian":[6.647723E3,3.8594363E3,2.7882866E3,2.365901E3,1.4935354E3,2.1098482E2,2.5773018E3,4.3660907E2,1.9292919E3,5.242187E2,9.693168E2,1.3981499E2,7.116983E1,2.0001125E2,2.3772905E3,1.8013858E2,2.564705E2,1.571231E3,3.5806082E2,4.0065146E2,1.2356721E2,2.3230069E2,7.370161E2,1.1512568E2,2.4689312E1,1.7676712E1,5.349312E1,6.4570045E1,1.354412E2,3.4066763E2,2.0366229E3,1.4204997E2,3.8088608E1,1.6658241E2,8.988807E1,1.5301864E3,4.104463E1,2.735979E2,8.446291E1,2.2696321E2,1.7368826E2,6.469381E1,5.887339E1,1.3741003E2,9.489066E1,6.171637E2,1.1985238E2,5.8421066E1,5.6704613E1,5.8463373E0,1.8842976E1,1.3130151E1,4.5465617E0,5.1792583E1,1.7005334E0,1.9023067E1,4.5546974E1,1.9707293E1,1.1573391E2,3.0631464E2,3.4353E1,9.551426E2,1.0814803E3],"tree_param":{"num_deleted":"0","num_feature":"13","num_nodes":"63","size_leaf_vector":"1"}},{"base_weights":[3.8404744E-3,-8.660113E-1,1.1867819E0,-1.3649726E0,-1.0745198E-1,-1.5000151E-1,1.2977719E0,-1.459967E0,-1.1512672E0,-1.0978056E0,3.343368E-1,2.1453033E-1,-1.0557294E0,4.1425663E-1,1.3741606E0,-1.1358012E0,-1.487975E0,-1.3293332E0,-7.9952335E-1,-5.782706E-1,-1.2111365E0,-2.4643174E-1,8.235287E-1,5.4367244E-1,-7.7700585E-1,-1.2080746E0,2.734851E-1,-1.1063089E-1,7.823713E-1,1.09348E0,1.4185631E0,-7.2824575E-2,-3.500415E-2,-7.449573E-2,-4.4593807E-2,-6.677609E-2,2.3720061E-2,-4.511753E-2,3.8521837E-2,-4.9179263E-2,5.5173635E-2,-6.3514635E-2,-3.4701876E-2,-4.2955246E-2,1.7989286E-3,4.8797525E-2,7.511899E-3,-9.609197E-3,5.0305594E-2,5.7781273E-3,-7.7362396E-2,-6.723931E-2,2.708414E-2,5.5182368E-2,-5.9827995E-2,1.0343281E-2,-4.1620273E-2,3.8324061E-3,4.794033E-2,5.8854442E-2,1.6460782E-2,6.41303E-2,7.385059E-2],"categories":[],"categories_nodes":[],"categories_segments":[],"categories_sizes":[],"default_left":[0,0,0,0,0,0,0,0,0,0,0,0,0,0,0,0,0,0,0,0,0,0,0,0,0,0,0,0,0,0,0,0,0,0,0,0,0,0,0,0,0,0,0,0,0,0,0,0,0,0,0,0,0,0,0,0,0,0,0,0,0,0,0],"id":7,"left_children":[1,3,5,7,9,11,13,15,17,19,21,23,25,27,29,31,33,35,37,39,41,43,45,47,49,51,53,55,57,59,61,-1,-1,-1,-1,-1,-1,-1,-1,-1,-1,-1,-1,-1,-1,-1,-1,-1,-1,-1,-1,-1,-1,-1,-1,-1,-1,-1,-1,-1,-1,-1,-1],"loss_changes":[6.8087305E3,1.4430725E3,4.1620312E2,4.501123E1,6.6280334E2,7.149237E1,1.7416553E2,1.2733154E1,4.3563904E1,2.6813232E1,2.9787866E2,5.0921654E1,1.29079895E1,4.017258E1,2.8142578E1,1.7223495E1,3.581543E-1,5.8970947E0,3.975885E1,5.942898E1,1.0824829E1,8.305025E1,5.824112E1,3.9925865E1,2.6974138E1,1.4102692E1,1.0109987E1,1.9971104E1,1.5125633E1,2.0685974E1,1.4425293E1,0E0,0E0,0E0,0E0,0E0,0E0,0E0,0E0,0E0,0E0,0E0,0E0,0E0,0E0,0E0,0E0,0E0,0E0,0E0,0E0,0E0,0E0,0E0,0E0,0E0,0E0,0E0,0E0,0E0,0E0,0E0,0E0],"parents":[2147483647,0,0,1,1,2,2,3,3,4,4,5,5,6,6,7,7,8,8,9,9,10,10,11,11,12,12,13,13,14,14,15,15,16,16,17,17,18,18,19,19,20,20,21,21,22,22,23,23,24,24,25,25,26,26,27,27,28,28,29,29,30,30],"right_children":[2,4,6,8,10,12,14,16,18,20,22,24,26,28,30,32,34,36,38,40,42,44,46,48,50,52,54,56,58,60,62,-1,-1,-1,-1,-1,-1,-1,-1,-1,-1,-1,-1,-1,-1,-1,-1,-1,-1,-1,-1,-1,-1,-1,-1,-1,-1,-1,-1,-1,-1,-1,-1],"split_conditions":[5E-4,6.6833496E-3,3.326416E-3,9.765625E-4,1.0009766E-2,1.00241E3,6.379E1,9.9434E2,2.6704E0,9.9481E2,7.662E1,1E1,5.390625E-1,1.72E-2,2.7999878E-1,3.3448E0,4.9438477E-3,9.86969E-1,8.644E1,8E0,1.5258789E-4,4.842E1,1.00023E3,6.999E1,9.9746E2,2.065E-1,1.81706E1,3.6028E0,4.583E1,1.00007E3,5.2E-2,-7.2824575E-2,-3.500415E-2,-7.449573E-2,-4.4593807E-2,-6.677609E-2,2.3720061E-2,-4.511753E-2,3.8521837E-2,-4.9179263E-2,5.5173635E-2,-6.3514635E-2,-3.4701876E-2,-4.2955246E-2,1.7989286E-3,4.8797525E-2,7.511899E-3,-9.609197E-3,5.0305594E-2,5.7781273E-3,-7.7362396E-2,-6.723931E-2,2.708414E-2,5.5182368E-2,-5.9827995E-2,1.0343281E-2,-4.1620273E-2,3.8324061E-3,4.794033E-2,5.8854442E-2,1.6460782E-2,6.41303E-2,7.385059E-2],"split_indices":[6,5,5,4,4,1,7,1,8,1,7,12,4,6,5,8,5,4,7,12,4,7,1,7,1,6,0,8,7,1,6,0,0,0,0,0,0,0,0,0,0,0,0,0,0,0,0,0,0,0,0,0,0,0,0,0,0,0,0,0,0,0,0],"split_type":[0,0,0,0,0,0,0,0,0,0,0,0,0,0,0,0,0,0,0,0,0,0,0,0,0,0,0,0,0,0,0,0,0,0,0,0,0,0,0,0,0,0,0,0,0,0,0,0,0,0,0,0,0,0,0,0,0,0,0,0,0,0,0],"sum_hessian":[6.614948E3,3.8120806E3,2.8028677E3,2.2990342E3,1.5130463E3,2.1484822E2,2.5880195E3,1.5875283E3,7.11506E2,4.6628802E2,1.0467583E3,1.5373645E2,6.111177E1,2.0646446E2,2.381555E3,1.295594E2,1.4579689E3,4.7052786E2,2.4097813E2,8.459362E1,3.816944E2,4.7881064E2,5.6794763E2,1.15761055E2,3.797539E1,5.490956E1,6.2022123E0,8.539741E1,1.21067055E2,3.287922E2,2.0527627E3,7.328133E1,5.627807E1,1.4517457E3,6.2231026E0,4.6917767E2,1.3501787E0,2.2656416E2,1.4413966E1,6.849973E1,1.6093887E1,3.4120404E2,4.0490364E1,1.504266E2,3.2838403E2,4.6274124E2,1.0520638E2,4.489937E1,7.086168E1,1.7984566E1,1.9990828E1,5.114496E1,3.7646015E0,4.123076E0,2.0791364E0,5.980402E1,2.559339E1,2.4500797E1,9.656625E1,2.958831E2,3.290912E1,6.2406744E2,1.4286953E3],"tree_param":{"num_deleted":"0","num_feature":"13","num_nodes":"63","size_leaf_vector":"1"}},{"base_weights":[-7.3893964E-3,-8.523866E-1,1.1503515E0,-1.3278829E0,-1.1523187E-1,-1.3325685E-1,1.2566553E0,-1.014298E0,-1.40135E0,-9.7797734E-1,3.764022E-1,6.371698E-1,-5.085614E-1,3.625869E-1,1.3248373E0,-1.3819728E0,-7.487933E-1,-7.2404526E-2,-1.170333E0,-1.1701186E0,-4.5119137E-1,-8.7949164E-2,9.019384E-1,1.1782166E0,9.892711E-3,-6.519041E-1,1.1782742E0,-5.3829396E-1,5.879785E-1,1.0483829E0,1.3739065E0,-7.359805E-2,-5.625676E-2,-7.1236044E-2,-3.3855285E-2,-5.97533E-2,-5.206098E-3,-4.9365953E-2,-7.019362E-2,-4.5789015E-2,1.0992514E-2,-3.611645E-2,7.18508E-3,5.189369E-2,9.905368E-4,-6.243393E-2,6.404905E-2,-3.152028E-2,2.8123263E-2,-6.2319692E-2,-2.0457247E-2,-2.673231E-2,7.592794E-2,-4.344434E-2,9.1400417E-4,1.5161897E-2,4.562856E-2,5.5451103E-2,-4.189389E-3,4.952282E-2,6.980194E-2],"categories":[],"categories_nodes":[],"categories_segments":[],"categories_sizes":[],"default_left":[0,0,0,0,0,0,0,0,0,0,0,0,0,0,0,0,0,0,0,0,0,0,0,0,0,0,0,0,0,0,0,0,0,0,0,0,0,0,0,0,0,0,0,0,0,0,0,0,0,0,0,0,0,0,0,0,0,0,0,0,0],"id":8,"left_children":[1,3,5,7,9,11,13,15,17,19,21,23,25,27,29,31,33,-1,35,37,39,41,43,45,47,49,51,53,55,57,59,-1,-1,-1,-1,-1,-1,-1,-1,-1,-1,-1,-1,-1,-1,-1,-1,-1,-1,-1,-1,-1,-1,-1,-1,-1,-1,-1,-1,-1,-1],"loss_changes":[6.351907E3,1.3154656E3,3.739773E2,5.1141113E1,6.2508484E2,6.1167774E1,1.5375049E2,4.1594147E1,1.8236328E1,5.3614838E1,2.2921054E2,2.3532536E1,3.51161E1,3.699742E1,3.0443848E1,2.5486755E0,1.1428207E1,0E0,8.204193E0,1.5335388E1,4.5278458E1,7.349228E1,5.280542E1,1.0886639E1,1.2078046E1,1.8478191E1,7.5045834E0,6.7638416E0,1.3122536E1,2.4706665E1,1.5530029E1,0E0,0E0,0E0,0E0,0E0,0E0,0E0,0E0,0E0,0E0,0E0,0E0,0E0,0E0,0E0,0E0,0E0,0E0,0E0,0E0,0E0,0E0,0E0,0E0,0E0,0E0,0E0,0E0,0E0,0E0],"parents":[2147483647,0,0,1,1,2,2,3,3,4,4,5,5,6,6,7,7,8,8,9,9,10,10,11,11,12,12,13,13,14,14,15,15,16,16,18,18,19,19,20,20,21,21,22,22,23,23,24,24,25,25,26,26,27,27,28,28,29,29,30,30],"right_children":[2,4,6,8,10,12,14,16,18,20,22,24,26,28,30,32,34,-1,36,38,40,42,44,46,48,50,52,54,56,58,60,-1,-1,-1,-1,-1,-1,-1,-1,-1,-1,-1,-1,-1,-1,-1,-1,-1,-1,-1,-1,-1,-1,-1,-1,-1,-1,-1,-1,-1,-1],"split_conditions":[5E-4,1.0009766E-2,3.326416E-3,9.9587E2,2.4810791E-2,9.9515E2,6.252E1,4.475E1,3.250122E-2,1.5258789E-4,8.027E1,3.19297E1,2.594E-1,4.424E1,6.206665E-1,3.84E1,2.56606E1,-7.2404526E-2,9.8916626E-1,1.00384E3,7.913E1,4.842E1,1.00342E3,2.72858E1,2.43E-2,6.902E1,8.37E1,3.43E-2,6.6033936E-1,1.00137E3,2.53786E1,-7.359805E-2,-5.625676E-2,-7.1236044E-2,-3.3855285E-2,-5.97533E-2,-5.206098E-3,-4.9365953E-2,-7.019362E-2,-4.5789015E-2,1.0992514E-2,-3.611645E-2,7.18508E-3,5.189369E-2,9.905368E-4,-6.243393E-2,6.404905E-2,-3.152028E-2,2.8123263E-2,-6.2319692E-2,-2.0457247E-2,-2.673231E-2,7.592794E-2,-4.344434E-2,9.1400417E-4,1.5161897E-2,4.562856E-2,5.5451103E-2,-4.189389E-3,4.952282E-2,6.980194E-2],"split_indices":[6,5,5,1,4,1,7,7,4,4,7,10,6,7,2,7,11,0,2,1,7,7,1,9,6,7,7,6,2,1,9,0,0,0,0,0,0,0,0,0,0,0,0,0,0,0,0,0,0,0,0,0,0,0,0,0,0,0,0,0,0],"split_type":[0,0,0,0,0,0,0,0,0,0,0,0,0,0,0,0,0,0,0,0,0,0,0,0,0,0,0,0,0,0,0,0,0,0,0,0,0,0,0,0,0,0,0,0,0,0,0,0,0,0,0,0,0,0,0,0,0,0,0,0,0],"sum_hessian":[6.49088E3,3.752394E3,2.7384858E3,2.2805442E3,1.4718499E3,2.0942665E2,2.5290593E3,4.356855E2,1.8448588E3,5.3391626E2,9.3793365E2,6.837285E1,1.410538E2,1.796488E2,2.3494104E3,1.8092825E2,2.5475723E2,1.5300278E3,3.1483093E2,3.903264E2,1.4358986E2,4.9839566E2,4.39538E2,3.6238052E1,3.2134796E1,1.3057172E2,1.0482097E1,3.5673805E1,1.4397499E2,3.5751956E2,1.9918909E3,1.3048068E2,5.0447575E1,2.261848E1,2.3213875E2,3.0757526E2,7.255664E0,2.2196765E2,1.6835872E2,8.4631424E1,5.8958435E1,1.327471E2,3.6564856E2,3.8069635E2,5.8841656E1,1.0191346E0,3.5218918E1,1.4820526E1,1.7314272E1,3.666036E1,9.3911354E1,1.6425712E0,8.839525E0,2.2028326E1,1.3645478E1,7.772605E1,6.624895E1,3.3936368E2,1.8155867E1,1.1119212E2,1.8806987E3],"tree_param":{"num_deleted":"0","num_feature":"13","num_nodes":"61","size_leaf_vector":"1"}},{"base_weights":[5.920779E-3,-8.0955416E-1,1.1136469E0,-1.2571759E0,-6.061013E-2,-1.3282947E-1,1.2133943E0,-9.052784E-1,-1.3454927E0,-5.6469303E-1,4.8159444E-1,2.8375217E-1,-9.41519E-1,5.344054E-1,1.30087E0,-1.259052E0,-5.7941437E-1,-1.4017842E0,-1.194043E0,-8.891471E-1,-2.3236872E-1,8.3977425E-1,-7.2373617E-1,5.873217E-1,-1.1565619E0,-3.939096E-1,-1.3938221E0,-4.505286E-2,7.821172E-1,1.0976408E0,1.3659822E0,-7.027974E-2,-5.03861E-2,-4.8315093E-2,1.986143E-3,-7.0587866E-2,-5.815205E-2,-6.4705014E-2,-3.8272552E-2,-7.445707E-2,-3.810553E-2,6.4972057E-3,-3.5382397E-2,2.8757012E-2,5.216686E-2,-6.674819E-2,-2.5439534E-2,1.8093562E-3,6.003132E-2,5.7526384E-3,-6.342447E-2,4.9185272E-2,-4.4870775E-2,-7.312828E-2,1.2075554E-2,1.4427538E-2,-3.0769944E-2,4.920397E-2,1.9882549E-2,5.804115E-2,1.8339965E-2,6.223722E-2,7.06033E-2],"categories":[],"categories_nodes":[],"categories_segments":[],"categories_sizes":[],"default_left":[0,0,0,0,0,0,0,0,0,0,0,0,0,0,0,0,0,0,0,0,0,0,0,0,0,0,0,0,0,0,0,0,0,0,0,0,0,0,0,0,0,0,0,0,0,0,0,0,0,0,0,0,0,0,0,0,0,0,0,0,0,0,0],"id":9,"left_children":[1,3,5,7,9,11,13,15,17,19,21,23,25,27,29,31,33,35,37,39,41,43,45,47,49,51,53,55,57,59,61,-1,-1,-1,-1,-1,-1,-1,-1,-1,-1,-1,-1,-1,-1,-1,-1,-1,-1,-1,-1,-1,-1,-1,-1,-1,-1,-1,-1,-1,-1,-1,-1],"loss_changes":[5.780237E3,1.2355051E3,3.375061E2,7.0474365E1,3.7739355E2,6.829665E1,1.485232E2,5.2975372E1,1.4029541E1,7.694112E1,2.8783588E2,5.9289986E1,1.6513596E1,4.1435135E1,2.794165E1,6.778717E0,5.856813E1,1.5419922E0,2.0702759E1,2.6432922E1,6.1191093E1,2.7054138E1,1.941536E1,3.7603443E1,3.5150738E0,2.3464203E1,4.5501785E0,1.6791792E1,1.5301582E1,2.4737976E1,7.634033E0,0E0,0E0,0E0,0E0,0E0,0E0,0E0,0E0,0E0,0E0,0E0,0E0,0E0,0E0,0E0,0E0,0E0,0E0,0E0,0E0,0E0,0E0,0E0,0E0,0E0,0E0,0E0,0E0,0E0,0E0,0E0,0E0],"parents":[2147483647,0,0,1,1,2,2,3,3,4,4,5,5,6,6,7,7,8,8,9,9,10,10,11,11,12,12,13,13,14,14,15,15,16,16,17,17,18,18,19,19,20,20,21,21,22,22,23,23,24,24,25,25,26,26,27,27,28,28,29,29,30,30],"right_children":[2,4,6,8,10,12,14,16,18,20,22,24,26,28,30,32,34,36,38,40,42,44,46,48,50,52,54,56,58,60,62,-1,-1,-1,-1,-1,-1,-1,-1,-1,-1,-1,-1,-1,-1,-1,-1,-1,-1,-1,-1,-1,-1,-1,-1,-1,-1,-1,-1,-1,-1,-1,-1],"split_conditions":[5E-4,1.9836426E-2,6.713867E-4,9.958E2,7.707E1,1E1,6.704E1,4.905E1,4.2510986E-2,5.585E1,1.00331E3,1.0032E3,2.79606E1,1.14E-2,8.388672E-1,3.913E1,3.3448E0,1.5258789E-4,2.7637E0,2.822E1,9.9718E2,8.586E1,1.3361E1,7.82E1,3.575E-1,9.9746E2,8.6383057E-1,9.9377E2,3.1093E0,1.00039E3,5.2E-2,-7.027974E-2,-5.03861E-2,-4.8315093E-2,1.986143E-3,-7.0587866E-2,-5.815205E-2,-6.4705014E-2,-3.8272552E-2,-7.445707E-2,-3.810553E-2,6.4972057E-3,-3.5382397E-2,2.8757012E-2,5.216686E-2,-6.674819E-2,-2.5439534E-2,1.8093562E-3,6.003132E-2,5.7526384E-3,-6.342447E-2,4.9185272E-2,-4.4870775E-2,-7.312828E-2,1.2075554E-2,1.4427538E-2,-3.0769944E-2,4.920397E-2,1.9882549E-2,5.804115E-2,1.8339965E-2,6.223722E-2,7.06033E-2],"split_indices":[6,5,5,1,7,12,7,7,2,7,1,1,11,6,2,7,8,5,8,7,1,7,10,7,8,1,2,1,8,1,6,0,0,0,0,0,0,0,0,0,0,0,0,0,0,0,0,0,0,0,0,0,0,0,0,0,0,0,0,0,0,0,0],"split_type":[0,0,0,0,0,0,0,0,0,0,0,0,0,0,0,0,0,0,0,0,0,0,0,0,0,0,0,0,0,0,0,0,0,0,0,0,0,0,0,0,0,0,0,0,0,0,0,0,0,0,0,0,0,0,0,0,0,0,0,0,0,0,0],"sum_hessian":[6.396862E3,3.684622E3,2.7122397E3,2.3058218E3,1.3788004E3,2.0093672E2,2.511303E3,4.6485614E2,1.8409656E3,7.144972E2,6.643033E2,1.330484E2,6.788832E1,2.874234E2,2.2238796E3,2.2151021E2,2.4334593E2,1.3361022E3,5.0486343E2,3.606817E2,3.5381546E2,5.123539E2,1.5194939E2,1.103769E2,2.2671494E1,3.155507E1,3.6333252E1,8.63194E1,2.01104E2,5.4395074E2,1.679929E3,1.3702351E2,8.4486694E1,1.4941718E2,9.3928764E1,1.2778104E3,5.8291718E1,4.076709E2,9.719251E1,6.1149616E1,2.9953207E2,2.0117964E2,1.5263582E2,2.2442473E2,2.8792917E2,3.8177013E1,1.13772385E2,5.8692772E1,5.168413E1,1.8318483E0,2.0839645E1,8.190842E0,2.336423E1,3.496893E1,1.364322E0,5.4774864E1,3.154453E1,1.3082259E2,7.028141E1,5.001259E2,4.3824852E1,4.704017E2,1.2095272E3],"tree_param":{"num_deleted":"0","num_feature":"13","num_nodes":"63","size_leaf_vector":"1"}},{"base_weights":[-4.7867484E-3,-7.868074E-1,1.0821203E0,-1.2341793E0,-8.63767E-2,-1.29242E-1,1.187561E0,-8.8932705E-1,-1.3187505E0,-5.228824E-1,5.021229E-1,2.0289478E-1,-9.939083E-1,4.565413E-1,1.2599418E0,-1.1759689E0,-5.3428316E-1,-1.3637977E0,-1.1761327E0,-9.570454E-1,-3.060195E-1,6.0190374E-1,-7.549112E-2,5.019181E-1,-6.138466E-1,-1.1093774E0,8.4699744E-1,-2.7449375E-1,7.111098E-1,1.0478079E0,1.3307025E0,-6.1316203E-2,-1.2038958E-2,-3.811618E-2,1.0711505E-2,-6.603449E-2,-7.106156E-2,-6.3570715E-2,-3.9468616E-2,-7.47221E-2,-4.0610842E-2,5.647532E-3,-3.8265377E-2,1.2493617E-2,4.7899004E-2,-1.2690772E-2,4.403014E-2,8.120421E-3,-6.4788684E-2,-1.835961E-2,-6.0453545E-2,1.2471925E-2,5.303356E-2,-4.1000295E-2,-3.334504E-3,4.6341736E-2,-1.02559095E-2,5.5735398E-2,1.2654203E-2,6.09187E-2,6.976105E-2],"categories":[],"categories_nodes":[],"categories_segments":[],"categories_sizes":[],"default_left":[0,0,0,0,0,0,0,0,0,0,0,0,0,0,0,0,0,0,0,0,0,0,0,0,0,0,0,0,0,0,0,0,0,0,0,0,0,0,0,0,0,0,0,0,0,0,0,0,0,0,0,0,0,0,0,0,0,0,0,0,0],"id":10,"left_children":[1,3,5,7,9,11,13,15,17,19,21,23,25,27,29,31,33,35,37,39,41,43,-1,45,47,49,51,53,55,57,59,-1,-1,-1,-1,-1,-1,-1,-1,-1,-1,-1,-1,-1,-1,-1,-1,-1,-1,-1,-1,-1,-1,-1,-1,-1,-1,-1,-1,-1,-1],"loss_changes":[5.318086E3,1.1400862E3,3.345437E2,6.3583496E1,3.6485776E2,6.066448E1,1.26861084E2,4.418689E1,9.838379E0,7.647754E1,1.2235063E2,3.7659172E1,1.339547E1,4.08679E1,3.1493408E1,1.1139282E1,3.4052353E1,1.458252E0,1.5018799E1,1.9888962E1,1.0500476E2,7.209532E1,0E0,3.2419437E1,2.214499E1,3.6678314E0,2.4942327E-1,6.4262233E0,3.2285713E1,2.910437E1,1.01796875E1,0E0,0E0,0E0,0E0,0E0,0E0,0E0,0E0,0E0,0E0,0E0,0E0,0E0,0E0,0E0,0E0,0E0,0E0,0E0,0E0,0E0,0E0,0E0,0E0,0E0,0E0,0E0,0E0,0E0,0E0],"parents":[2147483647,0,0,1,1,2,2,3,3,4,4,5,5,6,6,7,7,8,8,9,9,10,10,11,11,12,12,13,13,14,14,15,15,16,16,17,17,18,18,19,19,20,20,21,21,23,23,24,24,25,25,26,26,27,27,28,28,29,29,30,30],"right_children":[2,4,6,8,10,12,14,16,18,20,22,24,26,28,30,32,34,36,38,40,42,44,-1,46,48,50,52,54,56,58,60,-1,-1,-1,-1,-1,-1,-1,-1,-1,-1,-1,-1,-1,-1,-1,-1,-1,-1,-1,-1,-1,-1,-1,-1,-1,-1,-1,-1,-1,-1],"split_conditions":[5E-4,1.3336182E-2,3.326416E-3,9.958E2,1.5258789E-4,1.00241E3,6.48E1,5.384E1,5.935669E-2,4.905E1,1.1E1,1E1,3.018E-1,8.239746E-4,8.388672E-1,1.159668E-3,3.9772E0,1E1,2.7485E0,2.665E1,1.00096E3,8.351E1,-7.549112E-2,6.923E1,9.9746E2,1.5258789E-4,9.9194336E-1,3.688E1,4.2316E0,1.00053E3,8.96E-2,-6.1316203E-2,-1.2038958E-2,-3.811618E-2,1.0711505E-2,-6.603449E-2,-7.106156E-2,-6.3570715E-2,-3.9468616E-2,-7.47221E-2,-4.0610842E-2,5.647532E-3,-3.8265377E-2,1.2493617E-2,4.7899004E-2,-1.2690772E-2,4.403014E-2,8.120421E-3,-6.4788684E-2,-1.835961E-2,-6.0453545E-2,1.2471925E-2,5.303356E-2,-4.1000295E-2,-3.334504E-3,4.6341736E-2,-1.02559095E-2,5.5735398E-2,1.2654203E-2,6.09187E-2,6.976105E-2],"split_indices":[6,5,5,1,3,1,7,7,2,7,12,12,6,3,2,3,8,12,8,7,1,7,0,7,1,3,2,7,8,1,6,0,0,0,0,0,0,0,0,0,0,0,0,0,0,0,0,0,0,0,0,0,0,0,0,0,0,0,0,0,0],"split_type":[0,0,0,0,0,0,0,0,0,0,0,0,0,0,0,0,0,0,0,0,0,0,0,0,0,0,0,0,0,0,0,0,0,0,0,0,0,0,0,0,0,0,0,0,0,0,0,0,0,0,0,0,0,0,0,0,0,0,0,0,0],"sum_hessian":[6.2546904E3,3.6376833E3,2.617007E3,2.2193809E3,1.4183022E3,2.0953432E2,2.4074727E3,4.3935553E2,1.7800254E3,8.143724E2,6.0392993E2,1.519373E2,5.759701E1,2.1755476E2,2.189918E3,2.4181555E2,1.9754E2,1.3462399E3,4.3378552E2,2.7013818E2,5.442342E2,5.7606146E2,2.7868483E1,1.1150049E2,4.0436813E1,5.4571445E1,3.025568E0,5.6171337E1,1.6138344E2,5.517206E2,1.6381973E3,2.2916487E2,1.2650679E1,1.513972E2,4.614279E1,7.8273596E2,5.6350397E2,3.4620715E2,8.757837E1,5.5368988E1,2.147692E2,2.8500342E2,2.5923074E2,2.9053177E2,2.855297E2,3.7330498E1,7.416998E1,1.926678E1,2.1170034E1,7.016814E0,4.755463E1,1.367791E0,1.6577768E0,1.4682299E1,4.1489037E1,1.30618E2,3.0765436E1,5.0851138E2,4.3209225E1,6.0491125E2,1.033286E3],"tree_param":{"num_deleted":"0","num_feature":"13","num_nodes":"61","size_leaf_vector":"1"}},{"base_weights":[8.1278867E-4,-7.566313E-1,1.0533525E0,-1.1794356E0,-5.983868E-2,2.5794816E-1,1.1954032E0,-9.3168944E-1,-1.2843351E0,-5.173896E-1,5.397984E-1,4.9352446E-1,-8.025251E-1,6.665491E-1,1.2593166E0,-1.2508165E0,-6.606272E-1,-1.3351386E0,-1.0795208E0,-8.372992E-1,-2.4911894E-1,6.326745E-1,-7.2898574E-2,-5.5922136E-2,8.3620965E-1,-3.2101214E-1,-1.357467E0,-1.5631398E-3,8.5808486E-1,1.1412917E0,1.3356898E0,-6.8044685E-2,-5.2915376E-2,-4.0656954E-2,3.5441313E-3,-6.730476E-2,-5.365738E-2,-4.372673E-2,-6.2496614E-2,-6.448728E-2,-3.5732057E-2,1.1938908E-2,-3.1249646E-2,7.795799E-3,4.5489814E-2,6.0775266E-3,-6.488793E-2,5.188298E-2,-5.2666976E-3,-7.067449E-2,2.7070239E-3,-7.237984E-2,-2.0272154E-2,1.3253401E-2,-1.7392894E-2,2.9531736E-2,5.5072136E-2,5.915804E-2,4.4090517E-2,6.7106724E-2,2.5916502E-2],"categories":[],"categories_nodes":[],"categories_segments":[],"categories_sizes":[],"default_left":[0,0,0,0,0,0,0,0,0,0,0,0,0,0,0,0,0,0,0,0,0,0,0,0,0,0,0,0,0,0,0,0,0,0,0,0,0,0,0,0,0,0,0,0,0,0,0,0,0,0,0,0,0,0,0,0,0,0,0,0,0],"id":11,"left_children":[1,3,5,7,9,11,13,15,17,19,21,23,25,27,29,31,33,35,37,39,41,43,-1,45,47,49,51,53,55,57,59,-1,-1,-1,-1,-1,-1,-1,-1,-1,-1,-1,-1,-1,-1,-1,-1,-1,-1,-1,-1,-1,-1,-1,-1,-1,-1,-1,-1,-1,-1],"loss_changes":[4.8864204E3,1.049976E3,2.8949878E2,5.6450684E1,3.6986148E2,9.781075E1,7.271118E1,5.6566223E1,1.4746094E1,6.5407425E1,1.0918651E2,6.0238113E1,1.860506E1,3.0297073E1,1.5964844E1,4.993286E0,4.03179E1,2.121338E0,9.890106E0,1.8407227E1,7.66703E1,7.361656E1,0E0,2.742729E1,3.746486E1,1.6250109E1,2.2270584E0,5.054809E0,1.1325211E1,7.312744E0,5.47876E0,0E0,0E0,0E0,0E0,0E0,0E0,0E0,0E0,0E0,0E0,0E0,0E0,0E0,0E0,0E0,0E0,0E0,0E0,0E0,0E0,0E0,0E0,0E0,0E0,0E0,0E0,0E0,0E0,0E0,0E0],"parents":[2147483647,0,0,1,1,2,2,3,3,4,4,5,5,6,6,7,7,8,8,9,9,10,10,11,11,12,12,13,13,14,14,15,15,16,16,17,17,18,18,19,19,20,20,21,21,23,23,24,24,25,25,26,26,27,27,28,28,29,29,30,30],"right_children":[2,4,6,8,10,12,14,16,18,20,22,24,26,28,30,32,34,36,38,40,42,44,-1,46,48,50,52,54,56,58,60,-1,-1,-1,-1,-1,-1,-1,-1,-1,-1,-1,-1,-1,-1,-1,-1,-1,-1,-1,-1,-1,-1,-1,-1,-1,-1,-1,-1,-1,-1],"split_conditions":[5E-4,2.3162842E-2,8.648682E-2,9.9845E2,1.5258789E-4,1.00241E3,6.766E1,4.905E1,1.1065674E-1,5.956E1,1.1E1,7.045E1,1.85662E1,1.159668E-3,8.96E-2,3.913E1,3.3569336E-4,6.713867E-4,1.2600708E-1,2.6581E1,9.9909E2,8.01E1,-7.2898574E-2,1E1,1E1,1.4408E1,2.92942E1,3.28424E1,3.62E-2,9.9718E2,1.00865E3,-6.8044685E-2,-5.2915376E-2,-4.0656954E-2,3.5441313E-3,-6.730476E-2,-5.365738E-2,-4.372673E-2,-6.2496614E-2,-6.448728E-2,-3.5732057E-2,1.1938908E-2,-3.1249646E-2,7.795799E-3,4.5489814E-2,6.0775266E-3,-6.488793E-2,5.188298E-2,-5.2666976E-3,-7.067449E-2,2.7070239E-3,-7.237984E-2,-2.0272154E-2,1.3253401E-2,-1.7392894E-2,2.9531736E-2,5.5072136E-2,5.915804E-2,4.4090517E-2,6.7106724E-2,2.5916502E-2],"split_indices":[6,5,5,1,3,1,7,7,2,7,12,7,9,3,6,7,5,5,3,9,1,7,0,12,12,9,9,9,6,1,1,0,0,0,0,0,0,0,0,0,0,0,0,0,0,0,0,0,0,0,0,0,0,0,0,0,0,0,0,0,0],"split_type":[0,0,0,0,0,0,0,0,0,0,0,0,0,0,0,0,0,0,0,0,0,0,0,0,0,0,0,0,0,0,0,0,0,0,0,0,0,0,0,0,0,0,0,0,0,0,0,0,0,0,0,0,0,0,0,0,0,0,0,0,0],"sum_hessian":[6.1271714E3,3.5632292E3,2.5639421E3,2.2171812E3,1.3460482E3,3.8893582E2,2.1750063E3,6.6247156E2,1.5547095E3,7.6355634E2,5.824918E2,3.1867838E2,7.025742E1,2.357456E2,1.9392609E3,3.0259995E2,3.5987158E2,1.2412928E3,3.1341666E2,3.4729272E2,4.1626364E2,5.5726776E2,2.522402E1,1.2273201E2,1.9594638E2,3.8462593E1,3.1794832E1,5.274682E1,1.8299878E2,7.681422E2,1.1711187E3,1.886565E2,1.1394347E2,2.97694E2,6.2177586E1,1.1874929E3,5.3799988E1,1.4505876E2,1.6835788E2,7.204116E1,2.7525156E2,1.8129778E2,2.3496588E2,2.054226E2,3.5184518E2,1.0817472E2,1.4557287E1,1.6132721E2,3.4619175E1,9.124236E0,2.9338358E1,2.8569557E1,3.225275E0,2.9933752E1,2.2813065E1,8.8816505E1,9.4182274E1,6.5835297E2,1.0978927E2,1.1613198E3,9.798732E0],"tree_param":{"num_deleted":"0","num_feature":"13","num_nodes":"61","size_leaf_vector":"1"}},{"base_weights":[2.0173942E-3,-7.253468E-1,1.0138972E0,-1.1781557E0,-6.960469E-2,3.752861E-1,1.1501207E0,-1.2463697E0,-8.135851E-1,-6.23786E-1,4.8031914E-1,5.589194E-1,-7.730205E-1,1.1905798E0,3.915443E-1,-8.859184E-1,-1.2826923E0,-5.940558E-1,-1.1760461E0,-4.818508E-1,-1.1187377E0,1.5502316E-2,7.6099664E-1,1.00430675E-1,8.2239854E-1,-1.1589781E0,-9.003472E-2,6.7356867E-1,1.2387897E0,-1.0054313E0,6.872814E-1,-5.037988E-2,1.2479965E-2,-6.1479032E-2,-6.805342E-2,-4.32962E-2,7.1850615E-3,-6.001776E-2,2.8477032E-2,-3.157585E-2,8.660314E-3,-2.7301077E-2,-6.182609E-2,-2.8262172E-2,9.480079E-3,4.6084143E-2,7.070231E-3,-2.4005875E-2,2.1274341E-2,4.7049236E-2,7.390057E-3,-6.5472074E-2,-1.2255703E-2,1.5515232E-2,-6.533858E-2,4.5789137E-2,-7.99953E-4,5.7277497E-2,6.631376E-2,-6.193874E-2,4.076906E-2,1.3933742E-2,4.5805972E-2],"categories":[],"categories_nodes":[],"categories_segments":[],"categories_sizes":[],"default_left":[0,0,0,0,0,0,0,0,0,0,0,0,0,0,0,0,0,0,0,0,0,0,0,0,0,0,0,0,0,0,0,0,0,0,0,0,0,0,0,0,0,0,0,0,0,0,0,0,0,0,0,0,0,0,0,0,0,0,0,0,0,0,0],"id":12,"left_children":[1,3,5,7,9,11,13,15,17,19,21,23,25,27,29,31,33,35,37,39,41,43,45,47,49,51,53,55,57,59,61,-1,-1,-1,-1,-1,-1,-1,-1,-1,-1,-1,-1,-1,-1,-1,-1,-1,-1,-1,-1,-1,-1,-1,-1,-1,-1,-1,-1,-1,-1,-1,-1],"loss_changes":[4.4612124E3,1.0470193E3,2.2009058E2,5.0861084E1,4.396132E2,9.472082E1,6.3640625E1,2.184497E1,2.5691895E1,4.993033E1,9.44574E1,4.6556686E1,1.6256832E1,4.8579834E1,4.5001877E1,2.2900253E1,4.955078E0,4.1959457E1,5.9489594E0,5.5018326E1,1.0073929E1,2.7774672E1,4.4816833E1,2.7008244E1,1.9463806E1,5.120426E0,1.1849881E1,2.862365E1,1.3263428E1,9.144159E0,8.076893E0,0E0,0E0,0E0,0E0,0E0,0E0,0E0,0E0,0E0,0E0,0E0,0E0,0E0,0E0,0E0,0E0,0E0,0E0,0E0,0E0,0E0,0E0,0E0,0E0,0E0,0E0,0E0,0E0,0E0,0E0,0E0,0E0],"parents":[2147483647,0,0,1,1,2,2,3,3,4,4,5,5,6,6,7,7,8,8,9,9,10,10,11,11,12,12,13,13,14,14,15,15,16,16,17,17,18,18,19,19,20,20,21,21,22,22,23,23,24,24,25,25,26,26,27,27,28,28,29,29,30,30],"right_children":[2,4,6,8,10,12,14,16,18,20,22,24,26,28,30,32,34,36,38,40,42,44,46,48,50,52,54,56,58,60,62,-1,-1,-1,-1,-1,-1,-1,-1,-1,-1,-1,-1,-1,-1,-1,-1,-1,-1,-1,-1,-1,-1,-1,-1,-1,-1,-1,-1,-1,-1,-1,-1],"split_conditions":[5E-4,2.0141602E-2,4.862976E-1,1.5258789E-4,4.7180176E-1,1.00109E3,1.00213E3,9.9434E2,1.00123E3,1E1,7.686E1,6.734E1,3.34E-2,6.766E1,9.3170166E-2,7.707E1,1E1,8E0,3.25501E1,8.27E1,9.9881E2,4.905E1,1.00068E3,1.1E-2,1E1,3.0745E0,1E1,3.7861E0,1.454E-1,2.203E-1,8.403E1,-5.037988E-2,1.2479965E-2,-6.1479032E-2,-6.805342E-2,-4.32962E-2,7.1850615E-3,-6.001776E-2,2.8477032E-2,-3.157585E-2,8.660314E-3,-2.7301077E-2,-6.182609E-2,-2.8262172E-2,9.480079E-3,4.6084143E-2,7.070231E-3,-2.4005875E-2,2.1274341E-2,4.7049236E-2,7.390057E-3,-6.5472074E-2,-1.2255703E-2,1.5515232E-2,-6.533858E-2,4.5789137E-2,-7.99953E-4,5.7277497E-2,6.631376E-2,-6.193874E-2,4.076906E-2,1.3933742E-2,4.5805972E-2],"split_indices":[6,4,2,4,2,1,1,1,1,12,7,7,6,7,4,7,12,12,9,7,1,7,1,6,12,8,12,8,6,6,7,0,0,0,0,0,0,0,0,0,0,0,0,0,0,0,0,0,0,0,0,0,0,0,0,0,0,0,0,0,0,0,0],"split_type":[0,0,0,0,0,0,0,0,0,0,0,0,0,0,0,0,0,0,0,0,0,0,0,0,0,0,0,0,0,0,0,0,0,0,0,0,0,0,0,0,0,0,0,0,0,0,0,0,0,0,0,0,0,0,0,0,0,0,0,0,0,0,0],"sum_hessian":[6.0593887E3,3.5254739E3,2.5339146E3,2.0849553E3,1.4405186E3,4.4614716E2,2.0877673E3,1.7542942E3,3.3066122E2,7.1741504E2,7.231035E2,3.8507977E2,6.1067398E1,1.981513E3,1.062545E2,1.6292097E2,1.5913732E3,2.075779E2,1.2308334E2,5.590673E2,1.5834773E2,2.7264468E2,4.5045883E2,1.4103728E2,2.440425E2,3.8572834E1,2.2494564E1,1.7028775E2,1.8112251E3,1.8144667E1,8.810983E1,1.4725424E2,1.5666731E1,9.5851904E2,6.328541E2,1.5155513E2,5.6022762E1,1.2170088E2,1.38246E0,4.5511862E2,1.0394871E2,2.7971958E1,1.3037578E2,6.236524E1,2.1027943E2,3.5730667E2,9.315215E1,5.0452465E1,9.058481E1,2.072207E2,3.6821793E1,3.2748146E1,5.8246894E0,1.7486126E1,5.0084386E0,1.2577915E2,4.4508602E1,8.8360046E2,9.276247E2,1.6366856E1,1.777812E0,3.242696E1,5.5682877E1],"tree_param":{"num_deleted":"0","num_feature":"13","num_nodes":"63","size_leaf_vector":"1"}},{"base_weights":[1.1243642E-2,-7.054062E-1,1.0037594E0,-1.0307537E0,-7.716693E-4,4.2340648E-1,1.1356997E0,-7.4895304E-1,-1.2124344E0,3.728822E-1,-7.5345266E-1,5.7021236E-1,-8.1345665E-1,1.1700275E0,3.1574526E-1,-1.2495993E0,-5.4860693E-1,-1.2918172E0,-1.0357944E0,-2.846307E-1,8.244273E-1,-1.2625061E0,-6.5272236E-1,-6.62132E-3,7.578848E-1,-1.1780628E0,-5.9641108E-2,7.096096E-1,1.2173171E0,-1.1123794E-1,8.910552E-1,-6.43353E-2,-1.3245286E-2,-3.6505476E-2,-9.7419176E-4,-6.2091727E-2,-6.7256555E-2,-4.0291756E-2,-6.403645E-2,-5.5997815E-2,-1.2205279E-3,2.9025873E-2,5.1568657E-2,8.315928E-3,-6.896976E-2,-3.981034E-2,-3.3982046E-4,-3.010985E-2,1.1874538E-2,4.508247E-2,-6.9083804E-3,-6.452086E-2,9.556785E-3,1.3809218E-2,-5.816182E-2,4.761874E-2,5.0719203E-3,5.536442E-2,6.43874E-2,2.3863723E-3,-6.641592E-2,5.2487977E-2,-5.68061E-2],"categories":[],"categories_nodes":[],"categories_segments":[],"categories_sizes":[],"default_left":[0,0,0,0,0,0,0,0,0,0,0,0,0,0,0,0,0,0,0,0,0,0,0,0,0,0,0,0,0,0,0,0,0,0,0,0,0,0,0,0,0,0,0,0,0,0,0,0,0,0,0,0,0,0,0,0,0,0,0,0,0,0,0],"id":13,"left_children":[1,3,5,7,9,11,13,15,17,19,21,23,25,27,29,31,33,35,37,39,41,43,45,47,49,51,53,55,57,59,61,-1,-1,-1,-1,-1,-1,-1,-1,-1,-1,-1,-1,-1,-1,-1,-1,-1,-1,-1,-1,-1,-1,-1,-1,-1,-1,-1,-1,-1,-1,-1,-1],"loss_changes":[4.2303765E3,7.9177185E2,1.9047168E2,1.20061035E2,3.0738495E2,8.462989E1,5.6804688E1,9.247595E1,1.8783447E1,2.170809E2,1.776799E1,4.492383E1,1.3559753E1,4.157715E1,2.0485802E1,9.329956E0,6.3863144E1,9.5703125E-1,2.4312836E1,6.477257E1,2.1270782E1,1.0053871E1,2.8239456E1,1.5096042E1,4.0456024E1,5.3803368E0,6.703333E0,2.7063454E1,1.2262207E1,9.45183E0,1.260281E1,0E0,0E0,0E0,0E0,0E0,0E0,0E0,0E0,0E0,0E0,0E0,0E0,0E0,0E0,0E0,0E0,0E0,0E0,0E0,0E0,0E0,0E0,0E0,0E0,0E0,0E0,0E0,0E0,0E0,0E0,0E0,0E0],"parents":[2147483647,0,0,1,1,2,2,3,3,4,4,5,5,6,6,7,7,8,8,9,9,10,10,11,11,12,12,13,13,14,14,15,15,16,16,17,17,18,18,19,19,20,20,21,21,22,22,23,23,24,24,25,25,26,26,27,27,28,28,29,29,30,30],"right_children":[2,4,6,8,10,12,14,16,18,20,22,24,26,28,30,32,34,36,38,40,42,44,46,48,50,52,54,56,58,60,62,-1,-1,-1,-1,-1,-1,-1,-1,-1,-1,-1,-1,-1,-1,-1,-1,-1,-1,-1,-1,-1,-1,-1,-1,-1,-1,-1,-1,-1,-1,-1,-1],"split_conditions":[5E-4,4.1464233E-1,5.010681E-1,9.9936E2,1.00096E3,1.00226E3,1.00406E3,4.088E1,3.0151367E-2,7.516E1,1.31858E1,6.297E1,3.96E-2,6.844E1,1.454E-1,3.414917E-1,3.6028E0,1E1,1E1,3.913E1,8.586E1,1.0031E3,9.052E1,5.2E-3,1E1,9.476E1,5E0,3.6028E0,8.96E-2,1.01042E3,2.07129E1,-6.43353E-2,-1.3245286E-2,-3.6505476E-2,-9.7419176E-4,-6.2091727E-2,-6.7256555E-2,-4.0291756E-2,-6.403645E-2,-5.5997815E-2,-1.2205279E-3,2.9025873E-2,5.1568657E-2,8.315928E-3,-6.896976E-2,-3.981034E-2,-3.3982046E-4,-3.010985E-2,1.1874538E-2,4.508247E-2,-6.9083804E-3,-6.452086E-2,9.556785E-3,1.3809218E-2,-5.816182E-2,4.761874E-2,5.0719203E-3,5.536442E-2,6.43874E-2,2.3863723E-3,-6.641592E-2,5.2487977E-2,-5.68061E-2],"split_indices":[6,2,2,1,1,1,1,7,2,7,9,7,6,7,6,2,8,12,12,7,7,1,7,6,12,7,12,8,6,1,9,0,0,0,0,0,0,0,0,0,0,0,0,0,0,0,0,0,0,0,0,0,0,0,0,0,0,0,0,0,0,0,0],"split_type":[0,0,0,0,0,0,0,0,0,0,0,0,0,0,0,0,0,0,0,0,0,0,0,0,0,0,0,0,0,0,0,0,0,0,0,0,0,0,0,0,0,0,0,0,0,0,0,0,0,0,0,0,0,0,0,0,0,0,0,0,0,0,0],"sum_hessian":[5.9455063E3,3.4527349E3,2.4927712E3,2.361779E3,1.0909558E3,4.625236E2,2.0302478E3,9.278049E2,1.4339742E3,7.293759E2,3.6157993E2,4.139321E2,4.859149E1,1.9482562E3,8.199155E1,2.6367307E2,6.641318E2,9.849985E2,4.4897577E2,2.9711075E2,4.3226517E2,5.782422E1,3.037557E2,1.0184966E2,3.1208243E2,3.2371307E1,1.6220184E1,1.82958E2,1.7652982E3,4.752564E1,3.4465904E1,2.5380222E2,9.870837E0,4.9422153E2,1.6991028E2,5.2091986E2,4.640786E2,2.3377953E2,2.1519626E2,6.9786644E1,2.273241E2,2.0015924E2,2.3210591E2,4.3407683E0,5.348345E1,2.4835423E2,5.5401466E1,2.9183046E1,7.266662E1,2.689287E2,4.315373E1,2.9969585E1,2.401721E0,1.3010741E1,3.209444E0,1.3035709E2,5.2600906E1,6.954974E2,1.0698008E3,4.2885113E1,4.6405272E0,3.2410683E1,2.0552213E0],"tree_param":{"num_deleted":"0","num_feature":"13","num_nodes":"63","size_leaf_vector":"1"}},{"base_weights":[-4.870928E-3,-6.8907624E-1,9.556731E-1,-1.1367602E0,-6.718225E-2,-1.7887539E-1,1.0602216E0,-1.2388462E0,-9.2032087E-1,-1.0286639E0,2.53729E-1,4.081108E-1,-4.6108082E-1,7.125454E-1,1.1694973E0,-9.43425E-1,-1.26495E0,-8.01917E-1,-1.166263E0,-8.898177E-1,-1.2527363E0,-1.457041E-1,6.130834E-1,1.073776E0,-1.3610494E-1,-5.8021563E-1,9.1759896E-1,2.0998636E-1,8.4427243E-1,9.8255724E-1,1.2405003E0,-3.907764E-2,-6.4834915E-2,-6.106493E-2,-6.628002E-2,-3.5937954E-2,-6.622761E-2,-6.112743E-2,-9.411724E-3,-3.6098678E-2,-6.106178E-2,-6.708216E-2,-4.345983E-2,1.784302E-3,-3.8449667E-2,3.2813985E-2,-6.852788E-2,-5.2633453E-2,6.106626E-2,-1.0680117E-3,-7.6099336E-2,1.1153986E-2,-3.4196287E-2,5.657906E-2,-2.2588095E-2,2.3298344E-2,-1.751641E-2,4.3526508E-2,-6.124217E-2,5.1837366E-2,2.1037512E-2,4.4975173E-2,6.291067E-2],"categories":[],"categories_nodes":[],"categories_segments":[],"categories_sizes":[],"default_left":[0,0,0,0,0,0,0,0,0,0,0,0,0,0,0,0,0,0,0,0,0,0,0,0,0,0,0,0,0,0,0,0,0,0,0,0,0,0,0,0,0,0,0,0,0,0,0,0,0,0,0,0,0,0,0,0,0,0,0,0,0,0,0],"id":14,"left_children":[1,3,5,7,9,11,13,15,17,19,21,23,25,27,29,31,33,35,37,39,41,43,45,47,49,51,53,55,57,59,61,-1,-1,-1,-1,-1,-1,-1,-1,-1,-1,-1,-1,-1,-1,-1,-1,-1,-1,-1,-1,-1,-1,-1,-1,-1,-1,-1,-1,-1,-1,-1,-1],"loss_changes":[3.8253232E3,9.4631177E2,2.8739502E2,4.2529297E1,4.3959097E2,3.417202E1,8.340234E1,9.140625E0,1.7623657E1,9.976868E0,1.5343729E2,2.446825E1,2.3365408E1,3.509256E1,2.1151855E1,5.4331284E0,1.6329346E0,1.7884155E1,1.1049988E1,1.155452E1,3.401184E0,5.732156E1,4.9104538E1,1.0796257E1,5.98279E0,1.0863747E1,3.8646574E0,1.6223919E1,2.3982544E1,1.3834351E1,6.2226562E0,0E0,0E0,0E0,0E0,0E0,0E0,0E0,0E0,0E0,0E0,0E0,0E0,0E0,0E0,0E0,0E0,0E0,0E0,0E0,0E0,0E0,0E0,0E0,0E0,0E0,0E0,0E0,0E0,0E0,0E0,0E0,0E0],"parents":[2147483647,0,0,1,1,2,2,3,3,4,4,5,5,6,6,7,7,8,8,9,9,10,10,11,11,12,12,13,13,14,14,15,15,16,16,17,17,18,18,19,19,20,20,21,21,22,22,23,23,24,24,25,25,26,26,27,27,28,28,29,29,30,30],"right_children":[2,4,6,8,10,12,14,16,18,20,22,24,26,28,30,32,34,36,38,40,42,44,46,48,50,52,54,56,58,60,62,-1,-1,-1,-1,-1,-1,-1,-1,-1,-1,-1,-1,-1,-1,-1,-1,-1,-1,-1,-1,-1,-1,-1,-1,-1,-1,-1,-1,-1,-1,-1,-1],"split_conditions":[5E-4,6.6833496E-3,3.326416E-3,9.765625E-4,1.5258789E-4,9.951E2,7.383423E-1,9.9434E2,1E1,1.00462E3,1.5258789E-4,3.12912E1,2.594E-1,6E0,3.72E-2,6E0,6E0,3.62624E1,6.463318E-1,3.11714E1,1.00917E3,3.43795E1,1.1E1,2.74277E1,1.783E-1,1.46678E1,2.83595E1,3.26894E1,1.00226E3,3.39763E1,2.50584E1,-3.907764E-2,-6.4834915E-2,-6.106493E-2,-6.628002E-2,-3.5937954E-2,-6.622761E-2,-6.112743E-2,-9.411724E-3,-3.6098678E-2,-6.106178E-2,-6.708216E-2,-4.345983E-2,1.784302E-3,-3.8449667E-2,3.2813985E-2,-6.852788E-2,-5.2633453E-2,6.106626E-2,-1.0680117E-3,-7.6099336E-2,1.1153986E-2,-3.4196287E-2,5.657906E-2,-2.2588095E-2,2.3298344E-2,-1.751641E-2,4.3526508E-2,-6.124217E-2,5.1837366E-2,2.1037512E-2,4.4975173E-2,6.291067E-2],"split_indices":[6,5,5,4,4,1,2,1,12,1,3,10,6,12,6,12,12,11,4,0,1,10,12,10,6,11,0,10,1,0,10,0,0,0,0,0,0,0,0,0,0,0,0,0,0,0,0,0,0,0,0,0,0,0,0,0,0,0,0,0,0,0,0],"split_type":[0,0,0,0,0,0,0,0,0,0,0,0,0,0,0,0,0,0,0,0,0,0,0,0,0,0,0,0,0,0,0,0,0,0,0,0,0,0,0,0,0,0,0,0,0,0,0,0,0,0,0,0,0,0,0,0,0,0,0,0,0,0,0],"sum_hessian":[5.8185537E3,3.3982373E3,2.4203164E3,1.9753853E3,1.4228522E3,2.0415366E2,2.2161628E3,1.3390726E3,6.363125E2,3.5550842E2,1.0673436E3,6.6138885E1,1.3801477E2,5.3177246E2,1.6843904E3,1.117315E2,1.2273412E3,4.3240198E2,2.0391054E2,2.225665E2,1.3294193E2,5.057652E2,5.615785E2,2.9312191E1,3.6826694E1,1.2757029E2,1.0444487E1,1.1097602E2,4.2079645E2,4.6774078E2,1.2166495E3,7.882547E1,3.290603E1,7.2597595E2,5.0136526E2,3.7509482E2,5.7307163E1,1.9257767E2,1.1332873E1,1.49853E2,7.271351E1,1.05896454E2,2.7045473E1,3.9248627E2,1.1327893E2,5.5026495E2,1.1313565E1,1.5039039E0,2.7808287E1,3.494853E1,1.8781666E0,1.4455213E1,1.13115074E2,9.183133E0,1.2613535E0,7.6290825E1,3.4685192E1,4.1609537E2,4.701096E0,4.2582196E2,4.1918823E1,6.263438E1,1.1540151E3],"tree_param":{"num_deleted":"0","num_feature":"13","num_nodes":"63","size_leaf_vector":"1"}},{"base_weights":[-1.5442359E-3,-6.614727E-1,9.283815E-1,-1.0396198E0,-1.5731147E-2,4.3477476E-1,1.0866158E0,-1.155169E0,-6.6009283E-1,-5.559551E-1,4.616832E-1,5.6913257E-1,-4.5969927E-1,-6.751388E-1,1.1044562E0,-7.8761536E-1,-1.1927382E0,-7.7559465E-1,1.8041253E-1,-6.892922E-1,-1.3000263E-1,1.027268E-2,6.87561E-1,3.0982855E-1,9.748928E-1,-5.7779033E-2,-1.0424817E0,4.89991E-1,-1.3321193E0,-5.177257E-2,1.1206499E0,-4.570597E-2,1.9970654E-2,-5.6406803E-2,-6.4491816E-2,-4.6048522E-2,-1.769048E-2,-2.9992998E-2,4.172754E-2,-2.7025402E-2,-5.545909E-2,1.3160991E-2,-4.5135252E-2,-3.0077431E-2,9.160689E-3,4.164184E-2,4.913246E-3,-1.938728E-2,2.6995093E-2,5.3572048E-2,1.7541407E-2,-3.0007679E-2,2.1046793E-2,3.4535185E-2,-6.1258752E-2,-5.834874E-2,4.9490113E-2,-7.084604E-2,-1.763472E-2,4.0179543E-2,-4.091927E-2,4.9922917E-2,6.2181946E-2],"categories":[],"categories_nodes":[],"categories_segments":[],"categories_sizes":[],"default_left":[0,0,0,0,0,0,0,0,0,0,0,0,0,0,0,0,0,0,0,0,0,0,0,0,0,0,0,0,0,0,0,0,0,0,0,0,0,0,0,0,0,0,0,0,0,0,0,0,0,0,0,0,0,0,0,0,0,0,0,0,0,0,0],"id":15,"left_children":[1,3,5,7,9,11,13,15,17,19,21,23,25,27,29,31,33,35,37,39,41,43,45,47,49,51,53,55,57,59,61,-1,-1,-1,-1,-1,-1,-1,-1,-1,-1,-1,-1,-1,-1,-1,-1,-1,-1,-1,-1,-1,-1,-1,-1,-1,-1,-1,-1,-1,-1,-1,-1],"loss_changes":[3.503135E3,8.152921E2,1.8459656E2,9.158276E1,3.185572E2,6.958793E1,5.711963E1,2.1333008E1,4.807869E1,3.2819977E1,6.685126E1,5.2512787E1,1.7714766E1,1.4891618E1,3.3311523E1,2.3268127E1,7.712158E0,2.6306427E1,3.136565E1,2.6955307E1,4.258556E1,2.3356016E1,3.7330963E1,4.9596428E1,1.1388275E1,1.218864E1,1.0635326E1,7.31506E0,5.105171E-1,1.7370026E1,2.5080566E1,0E0,0E0,0E0,0E0,0E0,0E0,0E0,0E0,0E0,0E0,0E0,0E0,0E0,0E0,0E0,0E0,0E0,0E0,0E0,0E0,0E0,0E0,0E0,0E0,0E0,0E0,0E0,0E0,0E0,0E0,0E0,0E0],"parents":[2147483647,0,0,1,1,2,2,3,3,4,4,5,5,6,6,7,7,8,8,9,9,10,10,11,11,12,12,13,13,14,14,15,15,16,16,17,17,18,18,19,19,20,20,21,21,22,22,23,23,24,24,25,25,26,26,27,27,28,28,29,29,30,30],"right_children":[2,4,6,8,10,12,14,16,18,20,22,24,26,28,30,32,34,36,38,40,42,44,46,48,50,52,54,56,58,60,62,-1,-1,-1,-1,-1,-1,-1,-1,-1,-1,-1,-1,-1,-1,-1,-1,-1,-1,-1,-1,-1,-1,-1,-1,-1,-1,-1,-1,-1,-1,-1,-1],"split_conditions":[5E-4,4.0161133E-2,6.206665E-1,1.5258789E-4,4.7180176E-1,1.00109E3,3.326416E-3,9.9434E2,9.339905E-1,8.287E1,7.45E1,7.707E1,1E1,9.9991E2,5.229E1,7.82E1,1E1,3.1701E0,8E0,7E0,1E1,4.684E1,1.00171E3,1.14E-2,1E1,3.34E-2,1.53668E1,8.5446167E-1,3.2774E0,2.5991E0,1.454E-1,-4.570597E-2,1.9970654E-2,-5.6406803E-2,-6.4491816E-2,-4.6048522E-2,-1.769048E-2,-2.9992998E-2,4.172754E-2,-2.7025402E-2,-5.545909E-2,1.3160991E-2,-4.5135252E-2,-3.0077431E-2,9.160689E-3,4.164184E-2,4.913246E-3,-1.938728E-2,2.6995093E-2,5.3572048E-2,1.7541407E-2,-3.0007679E-2,2.1046793E-2,3.4535185E-2,-6.1258752E-2,-5.834874E-2,4.9490113E-2,-7.084604E-2,-1.763472E-2,4.0179543E-2,-4.091927E-2,4.9922917E-2,6.2181946E-2],"split_indices":[6,4,2,4,2,1,4,1,2,7,7,7,12,1,7,7,12,8,12,12,12,7,1,6,12,6,10,2,8,8,6,0,0,0,0,0,0,0,0,0,0,0,0,0,0,0,0,0,0,0,0,0,0,0,0,0,0,0,0,0,0,0,0],"split_type":[0,0,0,0,0,0,0,0,0,0,0,0,0,0,0,0,0,0,0,0,0,0,0,0,0,0,0,0,0,0,0,0,0,0,0,0,0,0,0,0,0,0,0,0,0,0,0,0,0,0,0,0,0,0,0,0,0,0,0,0,0,0,0],"sum_hessian":[5.7063647E3,3.3378933E3,2.3684714E3,2.1047432E3,1.2331501E3,5.758557E2,1.7926156E3,1.611936E3,4.9280713E2,5.784423E2,6.547079E2,5.0096942E2,7.4886284E1,1.7601557E1,1.775014E3,1.5152023E2,1.4604158E3,4.333356E2,5.947153E1,4.4006827E2,1.3837404E2,2.186958E2,4.360121E2,3.067208E2,1.9424863E2,4.4970905E1,2.9915377E1,6.438068E0,1.1163488E1,2.4486576E1,1.7505275E3,1.3713536E2,1.4384886E1,8.845311E2,5.7588464E2,3.2138202E2,1.1195359E2,2.7158808E1,3.2312725E1,3.2662042E2,1.1344785E2,9.214267E1,4.623136E1,4.764867E1,1.7104713E2,3.494507E2,8.656136E1,7.590232E1,2.3081848E2,1.6760223E2,2.6646383E1,2.096467E1,2.4006235E1,2.5874975E0,2.7327879E1,1.1826234E0,5.2554445E0,9.862849E0,1.3006394E0,1.1550567E1,1.2936009E1,8.826841E2,8.678434E2],"tree_param":{"num_deleted":"0","num_feature":"13","num_nodes":"63","size_leaf_vector":"1"}},{"base_weights":[8.249025E-3,-6.3090646E-1,9.0612054E-1,-1.0765923E0,-3.572104E-2,-1.5516242E-1,1.0083965E0,-7.6917446E-1,-1.1555172E0,-3.893771E-1,4.4927302E-1,4.2560804E-1,-4.5557153E-1,6.1961883E-1,1.0977303E0,-1.0101178E0,-3.8607666E-1,-1.2042017E0,-1.013884E0,-3.301134E-1,-1.0461134E0,5.4964787E-1,-3.5205227E-1,9.263121E-1,-5.066687E-2,-6.8326414E-1,6.5658E-1,6.766274E-2,7.276649E-1,9.2770934E-1,1.1796312E0,-6.1751194E-2,-4.090807E-2,-7.1151643E-3,-6.3149005E-2,-6.059099E-2,-4.37329E-2,-5.517142E-2,-3.3228647E-2,-1.4157448E-3,-2.8030416E-2,-4.0485103E-2,-6.578309E-2,3.898276E-2,7.6814867E-3,-2.9334689E-2,3.883077E-2,-7.935008E-2,5.3578705E-2,1.1010697E-2,-6.3378856E-2,-4.166291E-2,4.440277E-2,4.211536E-2,-5.1688056E-2,1.9947903E-2,-1.7785428E-2,3.905712E-2,-1.5717564E-2,4.9263623E-2,1.5392601E-2,4.1233163E-2,6.0019374E-2],"categories":[],"categories_nodes":[],"categories_segments":[],"categories_sizes":[],"default_left":[0,0,0,0,0,0,0,0,0,0,0,0,0,0,0,0,0,0,0,0,0,0,0,0,0,0,0,0,0,0,0,0,0,0,0,0,0,0,0,0,0,0,0,0,0,0,0,0,0,0,0,0,0,0,0,0,0,0,0,0,0,0,0],"id":16,"left_children":[1,3,5,7,9,11,13,15,17,19,21,23,25,27,29,31,33,35,37,39,41,43,45,47,49,51,53,55,57,59,61,-1,-1,-1,-1,-1,-1,-1,-1,-1,-1,-1,-1,-1,-1,-1,-1,-1,-1,-1,-1,-1,-1,-1,-1,-1,-1,-1,-1,-1,-1,-1,-1],"loss_changes":[3.223621E3,8.7040027E2,2.5369983E2,4.4635986E1,2.4134639E2,3.616713E1,7.332031E1,3.5267075E1,9.060059E0,3.132331E1,4.7922523E1,1.6933132E1,3.4983307E1,2.3829712E1,2.3013428E1,9.2009735E0,3.2049397E1,1.7124023E0,1.1394684E1,5.2002388E1,3.1970444E0,4.7950165E1,1.8110794E1,1.4322235E1,1.2554285E1,2.7535797E1,8.306753E0,9.4904995E0,1.8899597E1,1.9946503E1,7.591675E0,0E0,0E0,0E0,0E0,0E0,0E0,0E0,0E0,0E0,0E0,0E0,0E0,0E0,0E0,0E0,0E0,0E0,0E0,0E0,0E0,0E0,0E0,0E0,0E0,0E0,0E0,0E0,0E0,0E0,0E0,0E0,0E0],"parents":[2147483647,0,0,1,1,2,2,3,3,4,4,5,5,6,6,7,7,8,8,9,9,10,10,11,11,12,12,13,13,14,14,15,15,16,16,17,17,18,18,19,19,20,20,21,21,22,22,23,23,24,24,25,25,26,26,27,27,28,28,29,29,30,30],"right_children":[2,4,6,8,10,12,14,16,18,20,22,24,26,28,30,32,34,36,38,40,42,44,46,48,50,52,54,56,58,60,62,-1,-1,-1,-1,-1,-1,-1,-1,-1,-1,-1,-1,-1,-1,-1,-1,-1,-1,-1,-1,-1,-1,-1,-1,-1,-1,-1,-1,-1,-1,-1,-1],"split_conditions":[5E-4,6.6833496E-3,3.326416E-3,9.9587E2,1.5258789E-4,9.9521E2,5.9802246E-1,3.3221E0,5.6152344E-2,3.81348E1,1.00226E3,3.1926E1,3.3448E0,3.3569336E-4,5.2E-2,6.8359375E-3,3.85049E1,1.5258789E-4,2.7485E0,9.9784E2,9.9238E2,3.10506E1,9.9194336E-1,2.72858E1,4.9167E0,2.594E-1,1.00605E3,3.30876E1,1.00068E3,9.9857E2,2.48976E1,-6.1751194E-2,-4.090807E-2,-7.1151643E-3,-6.3149005E-2,-6.059099E-2,-4.37329E-2,-5.517142E-2,-3.3228647E-2,-1.4157448E-3,-2.8030416E-2,-4.0485103E-2,-6.578309E-2,3.898276E-2,7.6814867E-3,-2.9334689E-2,3.883077E-2,-7.935008E-2,5.3578705E-2,1.1010697E-2,-6.3378856E-2,-4.166291E-2,4.440277E-2,4.211536E-2,-5.1688056E-2,1.9947903E-2,-1.7785428E-2,3.905712E-2,-1.5717564E-2,4.9263623E-2,1.5392601E-2,4.1233163E-2,6.0019374E-2],"split_indices":[6,5,5,1,3,1,2,8,2,10,1,0,8,3,6,2,0,5,8,1,1,9,2,9,8,6,1,0,1,1,10,0,0,0,0,0,0,0,0,0,0,0,0,0,0,0,0,0,0,0,0,0,0,0,0,0,0,0,0,0,0,0,0],"split_type":[0,0,0,0,0,0,0,0,0,0,0,0,0,0,0,0,0,0,0,0,0,0,0,0,0,0,0,0,0,0,0,0,0,0,0,0,0,0,0,0,0,0,0,0,0,0,0,0,0,0,0,0,0,0,0,0,0,0,0,0,0,0,0],"sum_hessian":[5.6152476E3,3.2803835E3,2.3348643E3,1.8753087E3,1.4050748E3,2.0518727E2,2.129677E3,3.852967E2,1.490012E3,8.126733E2,5.924015E2,6.9809746E1,1.3537752E2,3.9940695E2,1.73027E3,2.3552824E2,1.4976846E2,1.1032747E3,3.8673734E2,7.467862E2,6.588711E1,5.26736E2,6.566543E1,3.357144E1,3.6238308E1,1.1269161E2,2.26859E1,6.56514E1,3.3375555E2,5.6652655E2,1.1637434E3,1.0595361E2,1.2957463E2,1.18099785E2,3.1668682E1,1.0757295E3,2.754513E1,3.0610873E2,8.062859E1,3.2386127E2,4.229249E2,3.7234226E1,2.865288E1,3.325957E2,1.9414037E2,5.476118E1,1.0904249E1,1.2920127E0,3.227943E1,3.0310347E1,5.92796E0,1.0330052E2,9.39109E0,2.0892065E1,1.7938344E0,3.686307E1,2.8788326E1,3.177011E2,1.6054438E1,5.1784717E2,4.8679405E1,6.653922E1,1.0972042E3],"tree_param":{"num_deleted":"0","num_feature":"13","num_nodes":"63","size_leaf_vector":"1"}},{"base_weights":[-4.261442E-3,-6.345592E-1,8.829516E-1,-1.0664108E0,-9.021207E-2,2.1335408E-1,1.0414087E0,-7.7857536E-1,-1.1351959E0,-4.5097843E-1,4.0743595E-1,4.022663E-1,-8.493576E-1,6.298169E-1,1.0829419E0,-1.0014182E0,-4.3802938E-1,-1.2008443E0,-9.6561855E-1,-2.5773418E-1,-6.4208305E-1,4.9050882E-1,-6.598558E-2,1.19342364E-1,7.7693224E-1,-6.213814E-1,-6.939278E-2,7.949879E-1,-2.0136464E-1,8.883231E-1,1.167167E0,-9.088713E-3,-5.3287912E-2,-1.0470555E-2,-6.4451836E-2,-5.7844408E-2,-6.2984645E-2,-5.3592026E-2,-2.7318735E-2,-2.4189387E-2,3.8653996E-2,-2.4639033E-2,-4.5770135E-2,3.380296E-2,4.9210754E-3,2.2932313E-2,-8.465684E-3,4.6736922E-2,1.8227383E-2,1.3422519E-2,-4.49503E-2,3.1516265E-2,5.37011E-2,4.834133E-3,-6.0448226E-2,5.0831515E-2,2.2493772E-2,5.8576465E-2,-6.101671E-5],"categories":[],"categories_nodes":[],"categories_segments":[],"categories_sizes":[],"default_left":[0,0,0,0,0,0,0,0,0,0,0,0,0,0,0,0,0,0,0,0,0,0,0,0,0,0,0,0,0,0,0,0,0,0,0,0,0,0,0,0,0,0,0,0,0,0,0,0,0,0,0,0,0,0,0,0,0,0,0],"id":17,"left_children":[1,3,5,7,9,11,13,15,17,19,21,23,25,27,29,31,33,35,37,39,41,43,-1,45,47,49,-1,51,53,55,57,-1,-1,-1,-1,-1,-1,-1,-1,-1,-1,-1,-1,-1,-1,-1,-1,-1,-1,-1,-1,-1,-1,-1,-1,-1,-1,-1,-1],"loss_changes":[3.0471123E3,7.487986E2,2.3991235E2,3.4285522E1,2.5339992E2,8.754168E1,3.0599243E1,2.5803802E1,1.47771E1,3.004779E1,8.577009E1,3.9071995E1,7.2253075E0,2.3514801E1,2.6186035E1,1.078833E1,2.668709E1,1.2015381E0,1.7433655E1,9.555221E1,1.6307236E1,4.116774E1,0E0,2.0811045E1,9.992226E0,1.2122789E1,0E0,5.8527985E0,8.82564E0,2.7998169E1,5.8930664E0,0E0,0E0,0E0,0E0,0E0,0E0,0E0,0E0,0E0,0E0,0E0,0E0,0E0,0E0,0E0,0E0,0E0,0E0,0E0,0E0,0E0,0E0,0E0,0E0,0E0,0E0,0E0,0E0],"parents":[2147483647,0,0,1,1,2,2,3,3,4,4,5,5,6,6,7,7,8,8,9,9,10,10,11,11,12,12,13,13,14,14,15,15,16,16,17,17,18,18,19,19,20,20,21,21,23,23,24,24,25,25,27,27,28,28,29,29,30,30],"right_children":[2,4,6,8,10,12,14,16,18,20,22,24,26,28,30,32,34,36,38,40,42,44,-1,46,48,50,-1,52,54,56,58,-1,-1,-1,-1,-1,-1,-1,-1,-1,-1,-1,-1,-1,-1,-1,-1,-1,-1,-1,-1,-1,-1,-1,-1,-1,-1,-1,-1],"split_conditions":[5E-4,6.713867E-4,1.373291E-1,9.958E2,1.5258789E-4,1.00241E3,6E0,3.3221E0,4.2510986E-2,9.9813E2,1.1E1,5.2E-2,2.36788E1,3.12018E1,3.86E-2,2.67118E1,3.85049E1,1E1,2.7485E0,8E0,1E1,3.1093E0,-6.598558E-2,3.11134E1,3.12564E1,1.00532E3,-6.939278E-2,5E0,9.9737E2,3.7512E0,1.00784E3,-9.088713E-3,-5.3287912E-2,-1.0470555E-2,-6.4451836E-2,-5.7844408E-2,-6.2984645E-2,-5.3592026E-2,-2.7318735E-2,-2.4189387E-2,3.8653996E-2,-2.4639033E-2,-4.5770135E-2,3.380296E-2,4.9210754E-3,2.2932313E-2,-8.465684E-3,4.6736922E-2,1.8227383E-2,1.3422519E-2,-4.49503E-2,3.1516265E-2,5.37011E-2,4.834133E-3,-6.0448226E-2,5.0831515E-2,2.2493772E-2,5.8576465E-2,-6.101671E-5],"split_indices":[6,5,5,1,3,1,12,8,2,1,12,6,9,9,6,9,0,12,8,12,12,8,0,0,9,1,0,12,1,8,1,0,0,0,0,0,0,0,0,0,0,0,0,0,0,0,0,0,0,0,0,0,0,0,0,0,0,0,0],"split_type":[0,0,0,0,0,0,0,0,0,0,0,0,0,0,0,0,0,0,0,0,0,0,0,0,0,0,0,0,0,0,0,0,0,0,0,0,0,0,0,0,0,0,0,0,0,0,0,0,0,0,0,0,0,0,0,0,0,0,0],"sum_hessian":[5.4469727E3,3.1847402E3,2.2622324E3,1.7753375E3,1.4094026E3,4.3335123E2,1.8288811E3,3.448038E2,1.4305337E3,8.171264E2,5.922762E2,3.684716E2,6.487962E1,1.6911598E2,1.6597651E3,2.0724704E2,1.3755678E2,1.0269061E3,4.0362756E2,4.0745654E2,4.0966986E2,5.657792E2,2.6497026E1,2.1069025E2,1.5778136E2,4.709542E1,1.7784204E1,1.41117E2,2.7998985E1,5.048216E2,1.1549435E3,1.5362697E1,1.9188434E2,1.0941037E2,2.8146402E1,5.996577E2,4.2724844E2,3.20793E2,8.283456E1,3.3460883E2,7.284774E1,2.6675592E2,1.4291394E2,3.8354642E2,1.8223273E2,9.657785E1,1.1411239E2,1.1319764E2,4.458371E1,1.1207288E1,3.5888134E1,9.079584E1,5.032116E1,2.2305178E1,5.693809E0,3.8951526E2,1.15306335E2,1.1506448E3,4.298794E0],"tree_param":{"num_deleted":"0","num_feature":"13","num_nodes":"59","size_leaf_vector":"1"}},{"base_weights":[-2.1143068E-4,-6.0916996E-1,8.666794E-1,-9.8419064E-1,5.038467E-3,3.271714E-1,1.0121175E0,-1.0967001E0,-6.188134E-1,-4.7495705E-1,4.3223917E-1,4.7926423E-1,-5.490519E-1,-7.4601084E-1,1.0295993E0,-7.813012E-1,-1.1412568E0,-7.355025E-1,2.0951268E-1,-3.4673372E-1,-9.730654E-1,6.917289E-2,6.611638E-1,3.17104E-3,7.576818E-1,1.06127E-1,-1.0696665E0,6.475184E-1,-6.944398E-2,-7.3261924E-2,1.0477101E0,-4.7058847E-2,1.4791811E-2,-5.3781074E-2,-6.1833806E-2,-2.9546773E-2,-4.938229E-2,-1.9001475E-2,3.6608834E-2,-4.472076E-2,-7.7402415E-3,-1.729817E-2,-5.4145362E-2,8.640536E-3,-4.099694E-2,3.949856E-2,9.035415E-3,-2.6657611E-2,1.4892869E-2,-5.9328437E-2,3.9635252E-2,2.1598844E-2,-4.159085E-2,-6.571626E-4,-6.0524087E-2,4.6835314E-2,-2.1393884E-2,-1.9406054E-2,4.642416E-2,4.6906155E-2,5.8965296E-2],"categories":[],"categories_nodes":[],"categories_segments":[],"categories_sizes":[],"default_left":[0,0,0,0,0,0,0,0,0,0,0,0,0,0,0,0,0,0,0,0,0,0,0,0,0,0,0,0,0,0,0,0,0,0,0,0,0,0,0,0,0,0,0,0,0,0,0,0,0,0,0,0,0,0,0,0,0,0,0,0,0],"id":18,"left_children":[1,3,5,7,9,11,13,15,17,19,21,23,25,27,29,31,33,35,37,39,41,43,45,47,49,51,53,55,-1,57,59,-1,-1,-1,-1,-1,-1,-1,-1,-1,-1,-1,-1,-1,-1,-1,-1,-1,-1,-1,-1,-1,-1,-1,-1,-1,-1,-1,-1,-1,-1],"loss_changes":[2.8446292E3,7.2907117E2,1.7412866E2,8.010913E1,2.4645932E2,6.337658E1,5.4579956E1,2.0205933E1,4.5096893E1,3.581205E1,5.2809303E1,5.3558678E1,2.416472E1,1.68613E1,3.471106E1,3.2826378E1,6.8945312E0,1.428064E1,1.8209278E1,4.7339817E1,7.568611E0,2.2904608E1,2.3986404E1,2.388312E1,1.8302155E1,1.0179389E1,5.8429832E0,2.3621676E0,0E0,9.491351E0,2.349707E1,0E0,0E0,0E0,0E0,0E0,0E0,0E0,0E0,0E0,0E0,0E0,0E0,0E0,0E0,0E0,0E0,0E0,0E0,0E0,0E0,0E0,0E0,0E0,0E0,0E0,0E0,0E0,0E0,0E0,0E0],"parents":[2147483647,0,0,1,1,2,2,3,3,4,4,5,5,6,6,7,7,8,8,9,9,10,10,11,11,12,12,13,13,14,14,15,15,16,16,17,17,18,18,19,19,20,20,21,21,22,22,23,23,24,24,25,25,26,26,27,27,29,29,30,30],"right_children":[2,4,6,8,10,12,14,16,18,20,22,24,26,28,30,32,34,36,38,40,42,44,46,48,50,52,54,56,-1,58,60,-1,-1,-1,-1,-1,-1,-1,-1,-1,-1,-1,-1,-1,-1,-1,-1,-1,-1,-1,-1,-1,-1,-1,-1,-1,-1,-1,-1,-1,-1],"split_conditions":[5E-4,4.0161133E-2,5.328064E-1,1.5258789E-4,4.7180176E-1,1E1,9.765625E-4,9.9515E2,9.339905E-1,1E1,7.662E1,6.704E1,9.9857E2,1.7700195E-1,5.229E1,7.707E1,1E1,1.00068E3,8E0,4.636E1,9.9845E2,1E1,1.00123E3,1.14E-2,1.40951E1,3.12018E1,1.9836426E-3,3.12849E1,-6.944398E-2,1.0998535E-1,1.783E-1,-4.7058847E-2,1.4791811E-2,-5.3781074E-2,-6.1833806E-2,-2.9546773E-2,-4.938229E-2,-1.9001475E-2,3.6608834E-2,-4.472076E-2,-7.7402415E-3,-1.729817E-2,-5.4145362E-2,8.640536E-3,-4.099694E-2,3.949856E-2,9.035415E-3,-2.6657611E-2,1.4892869E-2,-5.9328437E-2,3.9635252E-2,2.1598844E-2,-4.159085E-2,-6.571626E-4,-6.0524087E-2,4.6835314E-2,-2.1393884E-2,-1.9406054E-2,4.642416E-2,4.6906155E-2,5.8965296E-2],"split_indices":[6,4,2,4,2,12,4,1,2,12,7,7,1,3,7,7,12,1,12,7,1,12,1,6,10,9,3,0,0,3,6,0,0,0,0,0,0,0,0,0,0,0,0,0,0,0,0,0,0,0,0,0,0,0,0,0,0,0,0,0,0],"split_type":[0,0,0,0,0,0,0,0,0,0,0,0,0,0,0,0,0,0,0,0,0,0,0,0,0,0,0,0,0,0,0,0,0,0,0,0,0,0,0,0,0,0,0,0,0,0,0,0,0,0,0,0,0,0,0,0,0,0,0,0,0],"sum_hessian":[5.3865703E3,3.1641616E3,2.2224084E3,1.9642413E3,1.1999203E3,4.7258545E2,1.749823E3,1.5002676E3,4.639738E2,5.649925E2,6.3492786E2,4.0307385E2,6.9511604E1,1.6817558E1,1.7330055E3,1.8800363E2,1.3122639E3,4.067812E2,5.7192593E1,4.5067548E2,1.14317024E2,2.4603203E2,3.888958E2,1.491091E2,2.5396474E2,3.1130674E1,3.838093E1,5.306837E0,1.1510721E1,2.7949709E1,1.7050558E3,1.6381534E2,2.4188301E1,7.847418E2,5.2752216E2,2.606694E2,1.4611179E2,2.7005014E1,3.0187578E1,1.1600049E2,3.34675E2,1.7657507E1,9.665952E1,2.210691E2,2.4962917E1,3.0616937E2,8.272645E1,5.258898E1,9.652013E1,3.9121003E0,2.5005264E2,2.3504465E1,7.6262107E0,4.6424465E0,3.3738483E1,4.2838273E0,1.0230098E0,2.1731745E1,6.2179637E0,9.347596E2,7.702962E2],"tree_param":{"num_deleted":"0","num_feature":"13","num_nodes":"61","size_leaf_vector":"1"}},{"base_weights":[1.3426354E-3,-9.4029176E-1,5.1445466E-1,-1.0712105E0,-4.4428927E-1,-3.008685E-1,8.2201743E-1,-6.2729186E-1,-1.1216735E0,-8.382971E-1,1.4852229E-2,-5.5640846E-1,8.66165E-2,1.7528264E-1,9.377312E-1,-8.161664E-1,5.9303296E-1,-1.1787784E0,-9.333389E-1,-4.6785605E-1,-1.17275E0,-9.9429446E-1,1.4751649E-1,-7.7133447E-1,-2.1041538E-1,-5.3409E-1,4.313615E-1,4.2480618E-1,-2.596935E-1,7.552976E-1,1.0655925E0,-6.245305E-2,-2.7335146E-2,-2.0523677E-2,6.523019E-2,-5.718531E-2,-6.142917E-2,-5.367383E-2,-3.3874627E-2,-4.771915E-2,-5.289181E-3,-2.1981498E-2,-6.149323E-2,-6.826811E-2,-1.5785655E-2,-5.245208E-3,2.3066541E-2,-1.8359398E-2,-4.642156E-2,-2.1490885E-2,4.4474598E-2,-1.2622902E-2,-4.0844604E-2,3.3466678E-2,-2.2536963E-2,5.5384855E-3,4.27791E-2,-5.303585E-2,-4.4800313E-3,1.5653089E-2,4.39338E-2,3.6733743E-2,5.5070072E-2],"categories":[],"categories_nodes":[],"categories_segments":[],"categories_sizes":[],"default_left":[0,0,0,0,0,0,0,0,0,0,0,0,0,0,0,0,0,0,0,0,0,0,0,0,0,0,0,0,0,0,0,0,0,0,0,0,0,0,0,0,0,0,0,0,0,0,0,0,0,0,0,0,0,0,0,0,0,0,0,0,0,0,0],"id":19,"left_children":[1,3,5,7,9,11,13,15,17,19,21,23,25,27,29,31,33,35,37,39,41,43,45,47,49,51,53,55,57,59,61,-1,-1,-1,-1,-1,-1,-1,-1,-1,-1,-1,-1,-1,-1,-1,-1,-1,-1,-1,-1,-1,-1,-1,-1,-1,-1,-1,-1,-1,-1,-1,-1],"loss_changes":[2.5397292E3,1.1991785E2,8.53448E2,3.214026E1,7.036352E1,9.2398964E1,1.8473706E2,3.550052E1,1.30448E1,2.538301E1,2.4322256E1,4.1641373E1,7.972813E1,4.0942482E1,4.807617E1,1.47127E1,1.5489029E1,3.5107422E-1,1.0416382E1,1.7686167E1,4.037216E0,4.8845043E0,1.2759682E1,2.165091E1,5.2695076E1,1.0395157E1,5.0556236E1,3.2297207E1,1.8674603E1,4.7026794E1,1.3761597E1,0E0,0E0,0E0,0E0,0E0,0E0,0E0,0E0,0E0,0E0,0E0,0E0,0E0,0E0,0E0,0E0,0E0,0E0,0E0,0E0,0E0,0E0,0E0,0E0,0E0,0E0,0E0,0E0,0E0,0E0,0E0,0E0],"parents":[2147483647,0,0,1,1,2,2,3,3,4,4,5,5,6,6,7,7,8,8,9,9,10,10,11,11,12,12,13,13,14,14,15,15,16,16,17,17,18,18,19,19,20,20,21,21,22,22,23,23,24,24,25,25,26,26,27,27,28,28,29,29,30,30],"right_children":[2,4,6,8,10,12,14,16,18,20,22,24,26,28,30,32,34,36,38,40,42,44,46,48,50,52,54,56,58,60,62,-1,-1,-1,-1,-1,-1,-1,-1,-1,-1,-1,-1,-1,-1,-1,-1,-1,-1,-1,-1,-1,-1,-1,-1,-1,-1,-1,-1,-1,-1,-1,-1],"split_conditions":[2.331543E-2,1.5258789E-4,1.1013794E-1,9.9434E2,1.0345459E-2,6.713867E-4,6.674E1,7.686E1,1.5258789E-4,9.9857E2,4.088E1,2.5696E0,6.416E1,3.1701E0,8.403E1,3.84E1,7E0,1E1,7.597E1,5.777E1,1.20799E1,3.1922E0,8E0,9.9634E2,8.257E1,9.9269E2,9.9991E2,2.3345947E-2,3.913E1,1.01623535E-2,2.5185E1,-6.245305E-2,-2.7335146E-2,-2.0523677E-2,6.523019E-2,-5.718531E-2,-6.142917E-2,-5.367383E-2,-3.3874627E-2,-4.771915E-2,-5.289181E-3,-2.1981498E-2,-6.149323E-2,-6.826811E-2,-1.5785655E-2,-5.245208E-3,2.3066541E-2,-1.8359398E-2,-4.642156E-2,-2.1490885E-2,4.4474598E-2,-1.2622902E-2,-4.0844604E-2,3.3466678E-2,-2.2536963E-2,5.5384855E-3,4.27791E-2,-5.303585E-2,-4.4800313E-3,1.5653089E-2,4.39338E-2,3.6733743E-2,5.5070072E-2],"split_indices":[4,4,5,1,5,5,7,7,5,1,7,8,7,8,7,7,12,12,7,7,11,8,12,1,7,1,1,3,7,3,10,0,0,0,0,0,0,0,0,0,0,0,0,0,0,0,0,0,0,0,0,0,0,0,0,0,0,0,0,0,0,0,0],"split_type":[0,0,0,0,0,0,0,0,0,0,0,0,0,0,0,0,0,0,0,0,0,0,0,0,0,0,0,0,0,0,0,0,0,0,0,0,0,0,0,0,0,0,0,0,0,0,0,0,0,0,0,0,0,0,0,0,0,0,0,0,0,0,0],"sum_hessian":[5.254453E3,1.8530349E3,3.401418E3,1.4651516E3,3.8788324E2,9.316674E2,2.4697507E3,1.5092314E2,1.3142285E3,2.0830367E2,1.7957959E2,5.611574E2,3.7051E2,3.7520572E2,2.094545E3,1.3098175E2,1.9941378E1,1.0044197E3,3.098088E2,9.997258E1,1.08331085E2,2.0110302E1,1.5946928E2,3.453818E2,2.1577557E2,1.321062E2,2.3840381E2,2.3844527E2,1.3676045E2,8.6593243E2,1.2286125E3,4.885713E1,8.212463E1,8.449065E0,1.1492312E1,6.0344403E2,4.0097565E2,1.9810355E2,1.1170526E2,4.1957375E1,5.80152E1,8.4582815E0,9.98728E1,1.2346693E1,7.763609E0,8.874877E1,7.072052E1,9.760946E1,2.4777235E2,1.8039983E2,3.537575E1,6.713836E1,6.496785E1,1.8794218E2,5.0461613E1,1.3863626E2,9.9809006E1,2.303674E1,1.1372371E2,1.8965901E2,6.7627344E2,1.2206864E2,1.1065438E3],"tree_param":{"num_deleted":"0","num_feature":"13","num_nodes":"63","size_leaf_vector":"1"}},{"base_weights":[-2.5711125E-3,-5.77296E-1,8.1566197E-1,-1.0141066E0,-6.4980395E-2,1.7360942E-1,9.7294784E-1,-1.112372E0,-8.0160296E-1,-8.381983E-1,2.0887734E-1,3.4079814E-1,-5.022021E-1,3.269179E-1,1.0098827E0,-1.1563715E0,-9.515486E-1,-6.890791E-1,-1.0335006E0,-1.0213705E0,-5.810949E-1,3.44974E-1,-5.28732E-1,-3.0690798E-1,5.083811E-1,-7.3321E-1,1.6750443E-1,5.93761E-1,-8.5797566E-1,8.4914434E-1,1.1326342E0,-5.797713E-2,-3.1282526E-2,-4.879124E-2,3.2988116E-3,-3.0676274E-2,-6.0989853E-2,-5.295981E-2,4.7666833E-2,-6.1424155E-2,-4.553885E-2,6.360087E-4,-4.9507357E-2,8.813668E-3,3.1241853E-2,-4.63187E-2,-1.1545355E-2,9.082813E-3,-4.4752143E-2,4.1065062E-3,3.4563243E-2,-1.5564202E-2,-5.866983E-2,-6.0804386E-2,2.192762E-2,3.493146E-2,-4.1614812E-2,1.53392255E-2,-8.068224E-2,2.8112276E-2,4.5178574E-2,5.6871064E-2,-4.124543E-2],"categories":[],"categories_nodes":[],"categories_segments":[],"categories_sizes":[],"default_left":[0,0,0,0,0,0,0,0,0,0,0,0,0,0,0,0,0,0,0,0,0,0,0,0,0,0,0,0,0,0,0,0,0,0,0,0,0,0,0,0,0,0,0,0,0,0,0,0,0,0,0,0,0,0,0,0,0,0,0,0,0,0,0],"id":20,"left_children":[1,3,5,7,9,11,13,15,17,19,21,23,25,27,29,31,33,35,37,39,41,43,45,47,49,51,53,55,57,59,61,-1,-1,-1,-1,-1,-1,-1,-1,-1,-1,-1,-1,-1,-1,-1,-1,-1,-1,-1,-1,-1,-1,-1,-1,-1,-1,-1,-1,-1,-1,-1,-1],"loss_changes":[2.4135002E3,6.7458606E2,2.136731E2,3.308728E1,2.9419678E2,4.7387356E1,4.0249268E1,6.754883E0,1.2807312E1,1.6518646E1,1.031947E2,3.658408E1,1.3007164E1,3.0056705E1,3.0769653E1,7.335205E-1,6.0944366E0,1.3359528E1,9.549255E0,3.7111511E0,3.7296097E1,4.081987E1,1.8762856E1,2.016365E1,2.0756844E1,1.1169907E1,8.848825E0,1.2076389E1,1.5973877E1,1.04279785E1,9.454956E0,0E0,0E0,0E0,0E0,0E0,0E0,0E0,0E0,0E0,0E0,0E0,0E0,0E0,0E0,0E0,0E0,0E0,0E0,0E0,0E0,0E0,0E0,0E0,0E0,0E0,0E0,0E0,0E0,0E0,0E0,0E0,0E0],"parents":[2147483647,0,0,1,1,2,2,3,3,4,4,5,5,6,6,7,7,8,8,9,9,10,10,11,11,12,12,13,13,14,14,15,15,16,16,17,17,18,18,19,19,20,20,21,21,22,22,23,23,24,24,25,25,26,26,27,27,28,28,29,29,30,30],"right_children":[2,4,6,8,10,12,14,16,18,20,22,24,26,28,30,32,34,36,38,40,42,44,46,48,50,52,54,56,58,60,62,-1,-1,-1,-1,-1,-1,-1,-1,-1,-1,-1,-1,-1,-1,-1,-1,-1,-1,-1,-1,-1,-1,-1,-1,-1,-1,-1,-1,-1,-1,-1,-1],"split_conditions":[5E-4,6.713867E-4,1.373291E-1,6.500244E-3,3.326416E-3,1E1,5E0,2.8312E1,1E1,2.8089E1,3.42386E1,5.2E-3,6.713867E-4,4E0,8.96E-2,1.5258789E-4,6.1157227E-2,3.65201E1,9.80011E-1,1.73731E1,3.07857E1,9.3255615E-1,9.09729E-2,3.05692E1,6E0,2.86189E1,2.58021E1,2.86869E1,5.093384E-1,6.1447144E-1,3.90154E1,-5.797713E-2,-3.1282526E-2,-4.879124E-2,3.2988116E-3,-3.0676274E-2,-6.0989853E-2,-5.295981E-2,4.7666833E-2,-6.1424155E-2,-4.553885E-2,6.360087E-4,-4.9507357E-2,8.813668E-3,3.1241853E-2,-4.63187E-2,-1.1545355E-2,9.082813E-3,-4.4752143E-2,4.1065062E-3,3.4563243E-2,-1.5564202E-2,-5.866983E-2,-6.0804386E-2,2.192762E-2,3.493146E-2,-4.1614812E-2,1.53392255E-2,-8.068224E-2,2.8112276E-2,4.5178574E-2,5.6871064E-2,-4.124543E-2],"split_indices":[6,5,5,4,4,12,12,9,12,9,10,6,5,12,6,5,2,11,4,9,10,2,4,0,12,11,0,9,2,2,11,0,0,0,0,0,0,0,0,0,0,0,0,0,0,0,0,0,0,0,0,0,0,0,0,0,0,0,0,0,0,0,0],"split_type":[0,0,0,0,0,0,0,0,0,0,0,0,0,0,0,0,0,0,0,0,0,0,0,0,0,0,0,0,0,0,0,0,0,0,0,0,0,0,0,0,0,0,0,0,0,0,0,0,0,0,0,0,0,0,0,0,0,0,0,0,0,0,0],"sum_hessian":[5.1302783E3,3.0137336E3,2.1165447E3,1.6262125E3,1.387521E3,4.1688663E2,1.6996581E3,1.1091074E3,5.171051E2,3.6236063E2,1.0251603E3,3.3460464E2,8.228198E1,9.245059E1,1.6072074E3,8.6599176E2,2.431157E2,3.5083875E2,1.6626636E2,2.098683E2,1.5249234E2,8.659211E2,1.5923923E2,6.860723E1,2.6599744E2,6.1108467E1,2.1173515E1,7.586448E1,1.6586119E1,6.9935114E2,9.078563E2,8.596705E2,6.3212967E0,2.374906E2,5.6250973E0,3.0900452E2,4.1834217E1,1.6460442E2,1.6619291E0,6.953654E1,1.4033176E2,6.2594185E1,8.9898155E1,5.412731E2,3.24648E2,6.72884E1,9.195082E1,3.785346E1,3.0753773E1,8.029686E1,1.8570056E2,3.2073074E1,2.9035397E1,2.897306E0,1.827621E1,7.114293E1,4.7215457E0,6.760209E0,9.825909E0,1.13323685E2,5.8602747E2,9.060596E2,1.796747E0],"tree_param":{"num_deleted":"0","num_feature":"13","num_nodes":"63","size_leaf_vector":"1"}},{"base_weights":[1.274799E-2,-5.4633814E-1,8.123682E-1,-9.6080464E-1,-2.9208804E-2,2.1857043E-1,9.61179E-1,-1.0359646E0,-6.0150355E-1,-5.756179E-1,3.8874945E-1,-6.566619E-2,5.821741E-1,4.6875206E-1,1.0281717E0,-9.495709E-1,-5.9789885E-2,-8.160978E-1,-2.746094E-1,-7.466315E-1,-2.1320482E-1,1.7137858E-1,8.053185E-1,-4.5625857E-1,2.2892298E-1,6.962662E-1,-6.0038462E-2,6.719507E-1,-2.932592E-2,5.8085346E-1,1.0519623E0,-4.9071454E-2,1.6138462E-2,-5.059595E-2,-8.5995225E-3,3.3505321E-3,-3.822731E-2,-4.5143593E-2,-2.3107475E-2,-4.1143935E-2,-2.811901E-3,-1.4559246E-2,2.0632392E-2,4.2773046E-2,-8.2093163E-4,-1.4109949E-2,-7.250685E-2,-5.509001E-2,1.8739047E-2,3.8807094E-2,-3.49418E-3,-3.5730787E-2,4.672736E-2,-1.15519644E-4,4.3735035E-2,5.4068165E-3,-6.7264915E-2,3.2580175E-2,-5.382469E-2,4.7668975E-2,5.7400405E-2],"categories":[],"categories_nodes":[],"categories_segments":[],"categories_sizes":[],"default_left":[0,0,0,0,0,0,0,0,0,0,0,0,0,0,0,0,0,0,0,0,0,0,0,0,0,0,0,0,0,0,0,0,0,0,0,0,0,0,0,0,0,0,0,0,0,0,0,0,0,0,0,0,0,0,0,0,0,0,0,0,0],"id":21,"left_children":[1,3,5,7,9,11,13,15,17,19,21,23,25,27,29,31,-1,33,35,37,39,41,43,45,47,49,51,53,55,57,59,-1,-1,-1,-1,-1,-1,-1,-1,-1,-1,-1,-1,-1,-1,-1,-1,-1,-1,-1,-1,-1,-1,-1,-1,-1,-1,-1,-1,-1,-1],"loss_changes":[2.2538826E3,6.359139E2,1.8310315E2,4.3854248E1,3.019276E2,4.3135857E1,5.4230957E1,1.7653564E1,1.9930397E1,3.535161E1,6.76948E1,2.7138441E1,1.345499E1,2.0307278E1,1.4916382E1,3.63161E1,0E0,2.1638763E1,1.9360693E1,1.6867264E1,1.7666397E1,5.5198784E1,1.0586746E1,1.7123363E1,2.6538124E1,9.571892E0,1.924594E1,1.9470695E1,1.0825682E1,9.603043E0,1.2011475E1,0E0,0E0,0E0,0E0,0E0,0E0,0E0,0E0,0E0,0E0,0E0,0E0,0E0,0E0,0E0,0E0,0E0,0E0,0E0,0E0,0E0,0E0,0E0,0E0,0E0,0E0,0E0,0E0,0E0,0E0],"parents":[2147483647,0,0,1,1,2,2,3,3,4,4,5,5,6,6,7,7,8,8,9,9,10,10,11,11,12,12,13,13,14,14,15,15,17,17,18,18,19,19,20,20,21,21,22,22,23,23,24,24,25,25,26,26,27,27,28,28,29,29,30,30],"right_children":[2,4,6,8,10,12,14,16,18,20,22,24,26,28,30,32,-1,34,36,38,40,42,44,46,48,50,52,54,56,58,60,-1,-1,-1,-1,-1,-1,-1,-1,-1,-1,-1,-1,-1,-1,-1,-1,-1,-1,-1,-1,-1,-1,-1,-1,-1,-1,-1,-1,-1,-1],"split_conditions":[5E-4,2.0141602E-2,1.3150024E-1,1.5258789E-4,7.733154E-2,4.34E-2,6.766E1,1E1,1.3000488E-2,1.5258789E-4,8.504E1,6.999E1,1E1,3.5437E0,2.44905E1,8E0,-5.9789885E-2,3.2774E0,2.97746E1,2.6704E0,4.308E1,1.1105347E-1,1.1E1,4.9167E0,9.765625E-4,3.4348E1,2.1031E0,1.159668E-3,3.70358E1,2.70529E1,1.421E-1,-4.9071454E-2,1.6138462E-2,-5.059595E-2,-8.5995225E-3,3.3505321E-3,-3.822731E-2,-4.5143593E-2,-2.3107475E-2,-4.1143935E-2,-2.811901E-3,-1.4559246E-2,2.0632392E-2,4.2773046E-2,-8.2093163E-4,-1.4109949E-2,-7.250685E-2,-5.509001E-2,1.8739047E-2,3.8807094E-2,-3.49418E-3,-3.5730787E-2,4.672736E-2,-1.15519644E-4,4.3735035E-2,5.4068165E-3,-6.7264915E-2,3.2580175E-2,-5.382469E-2,4.7668975E-2,5.7400405E-2],"split_indices":[6,4,5,4,5,6,7,12,5,5,7,7,12,8,10,12,0,8,10,8,7,4,12,8,4,11,8,3,10,11,6,0,0,0,0,0,0,0,0,0,0,0,0,0,0,0,0,0,0,0,0,0,0,0,0,0,0,0,0,0,0],"split_type":[0,0,0,0,0,0,0,0,0,0,0,0,0,0,0,0,0,0,0,0,0,0,0,0,0,0,0,0,0,0,0,0,0,0,0,0,0,0,0,0,0,0,0,0,0,0,0,0,0,0,0,0,0,0,0,0,0,0,0,0,0],"sum_hessian":[5.039612E3,2.9660776E3,2.073534E3,1.6459951E3,1.3200826E3,4.1600864E2,1.6575253E3,1.3596875E3,2.863076E2,5.719623E2,7.481203E2,2.3394687E2,1.8206177E2,1.9945271E2,1.4580726E3,8.871192E2,4.7256827E2,1.7193921E2,1.14368385E2,3.878741E2,1.8408818E2,4.925257E2,2.5559462E2,1.0034792E2,1.3359894E2,1.5452544E2,2.7536331E1,1.414123E2,5.8040417E1,7.491503E1,1.3831576E3,8.656723E2,2.144695E1,1.3141533E2,4.052388E1,6.789218E1,4.6476208E1,2.4896584E2,1.3890828E2,3.6822754E1,1.4726543E2,1.6876367E2,3.2376202E2,2.408565E2,1.4738114E1,8.648551E1,1.3862413E1,1.2549615E1,1.2104933E2,1.3992442E2,1.4601011E1,1.6776518E1,1.0759814E1,3.292065E1,1.0849164E2,5.3382122E1,4.658297E0,7.2429924E1,2.4851E0,6.87956E2,6.952016E2],"tree_param":{"num_deleted":"0","num_feature":"13","num_nodes":"61","size_leaf_vector":"1"}},{"base_weights":[1.5530769E-3,-8.402939E-1,4.8663017E-1,-1.0220468E0,-4.7403544E-1,-5.012263E-1,6.812998E-1,-6.150884E-1,-1.0975654E0,-7.71572E-1,-2.7092624E-1,-7.808551E-1,-3.591232E-2,-3.7294086E-2,8.16445E-1,-9.0684676E-1,-1.6245407E-1,-1.0345643E0,-1.1851248E0,-6.395861E-1,-1.0913475E0,-5.055498E-1,2.769223E-1,-5.8634657E-1,-1.100721E0,-3.1752783E-1,4.0669724E-1,-2.5593188E-1,3.2083383E-1,8.792701E-1,2.8199124E-1,-5.4263897E-2,-7.6630726E-3,-6.0673483E-2,1.7563708E-2,-5.370736E-2,-2.7723357E-2,-5.951171E-2,-1.6115867E-2,-5.3412315E-2,-2.0989338E-2,-5.8465023E-2,1.1682372E-3,-2.8866243E-3,-3.561126E-2,-1.5180062E-3,6.342551E-2,-3.8886186E-2,1.1039908E-2,-3.674067E-2,-5.9078753E-2,-2.4901418E-2,3.9082106E-2,3.3789687E-2,-2.9144382E-2,-3.4964648E-3,-3.555089E-2,3.485192E-2,-7.678067E-3,3.0430887E-2,4.9500655E-2,-2.8354192E-2,2.2306152E-2],"categories":[],"categories_nodes":[],"categories_segments":[],"categories_sizes":[],"default_left":[0,0,0,0,0,0,0,0,0,0,0,0,0,0,0,0,0,0,0,0,0,0,0,0,0,0,0,0,0,0,0,0,0,0,0,0,0,0,0,0,0,0,0,0,0,0,0,0,0,0,0,0,0,0,0,0,0,0,0,0,0,0,0],"id":22,"left_children":[1,3,5,7,9,11,13,15,17,19,21,23,25,27,29,31,33,35,37,39,41,43,45,47,49,51,53,55,57,59,61,-1,-1,-1,-1,-1,-1,-1,-1,-1,-1,-1,-1,-1,-1,-1,-1,-1,-1,-1,-1,-1,-1,-1,-1,-1,-1,-1,-1,-1,-1,-1,-1],"loss_changes":[2.0190798E3,1.19837036E2,6.035792E2,3.6424072E1,3.6130997E1,6.723805E1,2.545575E2,2.5105316E1,4.383667E0,9.575592E0,4.627452E1,1.9442413E1,2.4448048E1,3.2642418E1,7.382495E1,1.543885E1,4.155092E1,1.0792847E1,1.4619141E0,1.601316E1,6.083946E0,2.3249802E1,3.30272E1,3.1516182E1,2.710144E0,2.4157562E1,2.0713434E1,2.1853645E1,2.8319176E1,5.855005E1,3.279601E1,0E0,0E0,0E0,0E0,0E0,0E0,0E0,0E0,0E0,0E0,0E0,0E0,0E0,0E0,0E0,0E0,0E0,0E0,0E0,0E0,0E0,0E0,0E0,0E0,0E0,0E0,0E0,0E0,0E0,0E0,0E0,0E0],"parents":[2147483647,0,0,1,1,2,2,3,3,4,4,5,5,6,6,7,7,8,8,9,9,10,10,11,11,12,12,13,13,14,14,15,15,16,16,17,17,18,18,19,19,20,20,21,21,22,22,23,23,24,24,25,25,26,26,27,27,28,28,29,29,30,30],"right_children":[2,4,6,8,10,12,14,16,18,20,22,24,26,28,30,32,34,36,38,40,42,44,46,48,50,52,54,56,58,60,62,-1,-1,-1,-1,-1,-1,-1,-1,-1,-1,-1,-1,-1,-1,-1,-1,-1,-1,-1,-1,-1,-1,-1,-1,-1,-1,-1,-1,-1,-1,-1,-1],"split_conditions":[6.6833496E-3,2.1636963E-2,2.4810791E-2,9.954E2,6.704E1,1.5258789E-4,6.416E1,3.3954E0,1E1,1.00096E3,2.6847E0,1.00434E3,8E0,1.6662598E-2,9.9991E2,7.178E1,3.688E1,5E0,9.996643E-1,4.358E1,6.9992065E-1,9.9774E2,8.693E1,7.952E1,1.1065674E-1,4.949951E-2,9.9962E2,6E0,7E0,1.628418E-1,8.648682E-2,-5.4263897E-2,-7.6630726E-3,-6.0673483E-2,1.7563708E-2,-5.370736E-2,-2.7723357E-2,-5.951171E-2,-1.6115867E-2,-5.3412315E-2,-2.0989338E-2,-5.8465023E-2,1.1682372E-3,-2.8866243E-3,-3.561126E-2,-1.5180062E-3,6.342551E-2,-3.8886186E-2,1.1039908E-2,-3.674067E-2,-5.9078753E-2,-2.4901418E-2,3.9082106E-2,3.3789687E-2,-2.9144382E-2,-3.4964648E-3,-3.555089E-2,3.485192E-2,-7.678067E-3,3.0430887E-2,4.9500655E-2,-2.8354192E-2,2.2306152E-2],"split_indices":[5,4,4,1,7,4,7,8,12,1,8,1,12,3,1,7,7,12,2,7,4,1,7,7,2,3,1,12,12,4,5,0,0,0,0,0,0,0,0,0,0,0,0,0,0,0,0,0,0,0,0,0,0,0,0,0,0,0,0,0,0,0,0],"split_type":[0,0,0,0,0,0,0,0,0,0,0,0,0,0,0,0,0,0,0,0,0,0,0,0,0,0,0,0,0,0,0,0,0,0,0,0,0,0,0,0,0,0,0,0,0,0,0,0,0,0,0,0,0,0,0,0,0,0,0,0,0,0,0],"sum_hessian":[4.942353E3,1.8064839E3,3.1358691E3,1.2061505E3,6.003334E2,5.159734E2,2.6198958E3,1.9022122E2,1.0159293E3,2.4241644E2,3.5791693E2,3.218691E2,1.9410428E2,4.1483884E2,2.205057E3,1.1505547E2,7.516576E1,5.9827277E2,4.1765656E2,1.7371602E2,6.8700424E1,2.5064993E2,1.07267E2,2.0191742E2,1.1995169E2,1.1879938E2,7.530489E1,2.5776074E2,1.5707808E2,1.9725396E3,2.3251729E2,9.267263E1,2.2382841E1,2.4230825E1,5.0934933E1,5.515604E2,4.6712345E1,4.148206E2,2.8359728E0,5.7573704E1,1.1614231E2,6.4164375E1,4.5360513E0,7.955412E1,1.7109581E2,8.263018E1,2.463682E1,1.6324731E2,3.8670116E1,2.3534346E1,9.641734E1,1.02512215E2,1.6287165E1,5.9454582E1,1.585031E1,1.8379411E2,7.396662E1,8.734359E1,6.973449E1,5.746381E2,1.3979015E3,3.7268326E1,1.9524896E2],"tree_param":{"num_deleted":"0","num_feature":"13","num_nodes":"63","size_leaf_vector":"1"}},{"base_weights":[2.2577556E-4,-5.290601E-1,7.6111096E-1,-9.279535E-1,-5.150538E-2,2.565988E-1,9.3684125E-1,-1.0054057E0,-5.611824E-1,-3.554944E-1,3.2567087E-1,3.9148006E-1,-4.1433004E-1,3.6637393E-1,1.0013909E0,-1.1020505E0,-8.8206786E-1,-1.1532106E0,-2.0211267E-1,-9.397426E-1,-2.2232252E-1,-4.5079625E-1,5.224192E-1,9.802581E-2,6.551302E-1,-8.893555E-1,-8.6873226E-2,6.9571406E-1,-1.5252805E-1,8.3571786E-1,1.0785735E0,-5.5283505E-2,-2.0652624E-2,-3.744247E-2,-5.3816658E-2,-6.1270785E-2,-4.582051E-2,-3.991471E-2,1.0039335E-2,-8.902772E-3,-5.1338125E-2,-2.9654583E-2,-4.21465E-3,-3.0123746E-2,4.476613E-2,3.0786812E-2,-3.8696693E-3,-3.8727332E-2,9.908743E-3,-6.488511E-2,3.5960626E-2,-5.8349915E-2,-7.4446476E-3,-2.5101755E-2,2.2931846E-2,-1.8861532E-3,4.4964273E-2,7.988821E-3,-4.4114213E-2,-2.9554203E-2,4.2812932E-2,3.422833E-2,5.491945E-2],"categories":[],"categories_nodes":[],"categories_segments":[],"categories_sizes":[],"default_left":[0,0,0,0,0,0,0,0,0,0,0,0,0,0,0,0,0,0,0,0,0,0,0,0,0,0,0,0,0,0,0,0,0,0,0,0,0,0,0,0,0,0,0,0,0,0,0,0,0,0,0,0,0,0,0,0,0,0,0,0,0,0,0],"id":23,"left_children":[1,3,5,7,9,11,13,15,17,19,21,23,25,27,29,31,33,35,37,39,41,43,45,47,49,51,53,55,57,59,61,-1,-1,-1,-1,-1,-1,-1,-1,-1,-1,-1,-1,-1,-1,-1,-1,-1,-1,-1,-1,-1,-1,-1,-1,-1,-1,-1,-1,-1,-1,-1,-1],"loss_changes":[1.9474346E3,5.432092E2,1.7563892E2,4.357605E1,1.4905609E2,4.666435E1,5.3798096E1,1.4305176E1,5.783966E1,5.579267E1,8.8877686E1,3.307778E1,1.3377647E1,2.592801E1,1.5988159E1,1.3253784E0,1.3895721E1,6.368103E-1,4.129696E1,8.652359E0,3.0014877E1,2.4599598E1,2.5985344E1,1.797162E1,2.9148178E1,7.0603333E0,1.2077336E1,1.3861542E1,1.3698128E1,1.2938965E1,6.2562256E0,0E0,0E0,0E0,0E0,0E0,0E0,0E0,0E0,0E0,0E0,0E0,0E0,0E0,0E0,0E0,0E0,0E0,0E0,0E0,0E0,0E0,0E0,0E0,0E0,0E0,0E0,0E0,0E0,0E0,0E0,0E0,0E0],"parents":[2147483647,0,0,1,1,2,2,3,3,4,4,5,5,6,6,7,7,8,8,9,9,10,10,11,11,12,12,13,13,14,14,15,15,16,16,17,17,18,18,19,19,20,20,21,21,22,22,23,23,24,24,25,25,26,26,27,27,28,28,29,29,30,30],"right_children":[2,4,6,8,10,12,14,16,18,20,22,24,26,28,30,32,34,36,38,40,42,44,46,48,50,52,54,56,58,60,62,-1,-1,-1,-1,-1,-1,-1,-1,-1,-1,-1,-1,-1,-1,-1,-1,-1,-1,-1,-1,-1,-1,-1,-1,-1,-1,-1,-1,-1,-1,-1,-1],"split_conditions":[5E-4,6.6833496E-3,2.4987793E-1,3.3954E0,7.799E1,1E1,6.704E1,6.652832E-3,4.358E1,3.84E1,1.98188E1,7.334E1,7.534E1,3.1311E0,5.2E-2,3.369E0,1E1,3.688E1,2.73309E1,1.656E0,2.58544E1,9.65E1,1E1,2.88577E1,1.3883E1,2.4275E0,1.7021E0,1.159668E-3,3.44572E1,1.83877E1,2.39743E1,-5.5283505E-2,-2.0652624E-2,-3.744247E-2,-5.3816658E-2,-6.1270785E-2,-4.582051E-2,-3.991471E-2,1.0039335E-2,-8.902772E-3,-5.1338125E-2,-2.9654583E-2,-4.21465E-3,-3.0123746E-2,4.476613E-2,3.0786812E-2,-3.8696693E-3,-3.8727332E-2,9.908743E-3,-6.488511E-2,3.5960626E-2,-5.8349915E-2,-7.4446476E-3,-2.5101755E-2,2.2931846E-2,-1.8861532E-3,4.4964273E-2,7.988821E-3,-4.4114213E-2,-2.9554203E-2,4.2812932E-2,3.422833E-2,5.491945E-2],"split_indices":[6,5,5,8,7,12,7,2,7,7,9,7,7,8,6,8,12,7,9,8,11,7,12,11,0,8,8,3,9,0,0,0,0,0,0,0,0,0,0,0,0,0,0,0,0,0,0,0,0,0,0,0,0,0,0,0,0,0,0,0,0,0,0],"split_type":[0,0,0,0,0,0,0,0,0,0,0,0,0,0,0,0,0,0,0,0,0,0,0,0,0,0,0,0,0,0,0,0,0,0,0,0,0,0,0,0,0,0,0,0,0,0,0,0,0,0,0,0,0,0,0,0,0,0,0,0,0,0,0],"sum_hessian":[4.8336343E3,2.850841E3,1.9827933E3,1.5528383E3,1.2980027E3,5.1286005E2,1.4699333E3,1.2806569E3,2.721814E2,7.187645E2,5.792381E2,4.273613E2,8.5498764E1,1.5009781E2,1.3198354E3,7.135775E2,5.670794E2,1.0192214E2,1.7025925E2,1.3229718E2,5.8646735E2,1.16839584E2,4.6239853E2,2.0289832E2,2.2446297E2,3.418799E1,5.131078E1,9.16121E1,5.8485718E1,4.2321936E2,8.9661615E2,7.092468E2,4.330704E0,3.392747E2,2.2780469E2,7.490672E1,2.7015423E1,6.826469E1,1.0199455E2,1.3877055E1,1.1842013E2,1.582055E2,4.2826184E2,1.0550399E2,1.1335597E1,4.0012216E2,6.2276356E1,2.019661E1,1.827017E2,6.520094E0,2.1794287E2,2.444579E1,9.742198E0,2.9181683E1,2.2129097E1,2.0080338E1,7.153176E1,4.1504585E1,1.6981133E1,5.612153E0,4.176072E2,4.4635735E1,8.519804E2],"tree_param":{"num_deleted":"0","num_feature":"13","num_nodes":"63","size_leaf_vector":"1"}},{"base_weights":[7.630794E-4,-5.0481856E-1,7.350767E-1,-8.1567776E-1,-6.85023E-2,3.4906778E-1,9.339066E-1,-5.3178513E-1,-9.979917E-1,1.6318174E-1,-5.848877E-1,4.6108475E-1,-3.868041E-1,7.064258E-1,1.0487119E0,-1.0172445E0,-3.041095E-1,-1.0709479E0,-7.424289E-1,-2.0960294E-1,6.400671E-1,-1.1226734E0,-4.839469E-1,2.0799151E-1,7.882588E-1,-8.326439E-1,-3.2160055E-2,1.3371998E-1,7.982521E-1,1.0692388E0,4.1718358E-1,-5.2326996E-2,3.5764754E-3,-2.9455898E-2,1.08271865E-2,-5.3645283E-2,5.1023224E-3,-3.8535383E-2,4.373546E-2,-4.211263E-2,-3.119328E-3,-1.0442948E-2,3.5703197E-2,6.5900474E-3,-6.0252167E-2,-3.706723E-2,-7.731592E-3,-2.536543E-2,1.7042516E-2,-2.029501E-2,4.101003E-2,-1.8500848E-2,-5.547762E-2,-1.37483915E-2,4.2565197E-2,2.2445224E-2,-2.677602E-2,5.531534E-3,4.3817572E-2,-1.1987519E-2,5.376137E-2,2.7058604E-3,5.2627116E-2],"categories":[],"categories_nodes":[],"categories_segments":[],"categories_sizes":[],"default_left":[0,0,0,0,0,0,0,0,0,0,0,0,0,0,0,0,0,0,0,0,0,0,0,0,0,0,0,0,0,0,0,0,0,0,0,0,0,0,0,0,0,0,0,0,0,0,0,0,0,0,0,0,0,0,0,0,0,0,0,0,0,0,0],"id":24,"left_children":[1,3,5,7,9,11,13,15,17,19,21,23,25,27,29,31,33,35,37,39,41,43,45,47,49,51,53,55,57,59,61,-1,-1,-1,-1,-1,-1,-1,-1,-1,-1,-1,-1,-1,-1,-1,-1,-1,-1,-1,-1,-1,-1,-1,-1,-1,-1,-1,-1,-1,-1,-1,-1],"loss_changes":[1.7603097E3,3.808152E2,1.4806299E2,8.433679E1,1.399993E2,5.449182E1,3.2569946E1,7.079985E1,1.7800293E1,1.4377705E2,1.91288E1,4.722648E1,1.3822995E1,2.2552795E1,1.0516113E1,6.612747E0,6.532883E1,1.8860474E0,1.0951958E1,4.225482E1,2.2433746E1,5.9983063E0,2.5897766E1,3.0968258E1,9.840744E0,4.5556965E0,1.0922442E1,1.3052643E1,1.9834015E1,6.6729736E0,6.462065E0,0E0,0E0,0E0,0E0,0E0,0E0,0E0,0E0,0E0,0E0,0E0,0E0,0E0,0E0,0E0,0E0,0E0,0E0,0E0,0E0,0E0,0E0,0E0,0E0,0E0,0E0,0E0,0E0,0E0,0E0,0E0,0E0],"parents":[2147483647,0,0,1,1,2,2,3,3,4,4,5,5,6,6,7,7,8,8,9,9,10,10,11,11,12,12,13,13,14,14,15,15,16,16,17,17,18,18,19,19,20,20,21,21,22,22,23,23,24,24,25,25,26,26,27,27,28,28,29,29,30,30],"right_children":[2,4,6,8,10,12,14,16,18,20,22,24,26,28,30,32,34,36,38,40,42,44,46,48,50,52,54,56,58,60,62,-1,-1,-1,-1,-1,-1,-1,-1,-1,-1,-1,-1,-1,-1,-1,-1,-1,-1,-1,-1,-1,-1,-1,-1,-1,-1,-1,-1,-1,-1,-1,-1],"split_conditions":[5E-4,2.5933838E-1,7.7993774E-1,9.9881E2,1.00171E3,1.00109E3,5.2E-2,4.358E1,5.6152344E-2,8.01E1,1.34417E1,7.558E1,1.7243E0,6.766E1,1.00415E3,1.159668E-3,3.2774E0,6.9812E0,5.4375E0,3.913E1,9.8986E2,1.0031E3,1.00645E3,5.2E-3,6.448364E-2,9.546E-1,1.388E-1,3.5437E0,2.53786E1,4.734E1,5.608E-1,-5.2326996E-2,3.5764754E-3,-2.9455898E-2,1.08271865E-2,-5.3645283E-2,5.1023224E-3,-3.8535383E-2,4.373546E-2,-4.211263E-2,